-45.65818184981232 49.26927917362737 121.76872816641195 -46.61549694290722 -6.098595156874895 -120.05699708204972 28.532610878716724 53.34868903070324 145.40910462981572 -1.549845384067488 28.437732635853678 22.407246454492423 -251.75709497028612 -119.70651274920614 -45.73413974545617 142.63186540462416 -99.5779203064635 -113.97945446684844 -102.17973847310638 -135.7767047800824 -25.81976348476377 -103.4232949319305 -48.845503428270604 9.69537555544288 21.778951419921917 -10.208451011700834 26.543932002908225 43.116742740186034 -116.2949501398067 -79.25159042518425 -111.27875396506714 74.1700705569784 79.62135547001215 -57.537427877176455 -50.55734209874994 -12.656807297361246 -107.07678973673761 -147.27139756924467 -44.81081794770127 -182.96734284192357 -36.509228747567846 89.15170849721179 27.586516337340854 -131.86785827047197 4.177025441061578 100.688840718384 53.9672420782856 -110.09986901613016 31.776936268201695 156.07856766902367 -32.211739226065575 -21.01464309515874 175.35463623442672 59.20088720591495 -184.18400343538087 -43.473206259851075 11.061306916114717 22.779736334558077 -170.42345438886096 -83.50365106026334 -148.88176427588402 -25.163067244761265 112.03080224270357 32.26325095866102 -133.4032868397621 -45.76662154349743 -72.99502718232137 113.30259796458165 -8.987154213415398 -20.240553853563846 -34.75074473412253 -190.55064953433916 311.15378886434826 -77.41593614626694 -7.936078902459325 -15.605540166718994 27.561006314330022 36.56066811556858 -149.3204070996753 11.406101091057653 62.12338951488564 260.7102210333533 -162.91113200901384 60.08237397733833 -41.464696506833825 55.34363315074595 5.291052973616814 13.42445729300361 -212.57286011567643 -133.4890582400385 145.05793253631649 148.15199439593204 162.6495734108932 72.45048446513607 -1.5638677912589005 44.38630554548982 37.903531033505104 -87.84511341371743 -86.78746714106475 -143.75975778239393 -38.61547526228858 9.706235835893718 -24.981911462836212 7.27662990834722 27.92863277633698 150.6386419953771 -55.072188383332254 -125.43250660089976 25.229986964307848 41.977410311396945 117.14823268865206 137.39167490383977 -227.70665786533897 40.97978614969969 -17.540446992131763 19.005884928854286 79.0273600779844 153.12231204778504 -15.819660291933989 8.452984859134045 44.689367151279676 195.04306305070403 92.53086278477667 88.94948844657826 9.998306709566906 25.675568506406147 -1.1938693031635528 -3.2455316448851947 18.49052206007296 -54.5188198383138 -78.09490137069784 -91.34073267651003 229.91052880369668 -18.137491292528598 147.89692096198604 7.834659966479794 93.4583678867857 67.71411215842421 79.8049235038948 29.994553002189424 62.93573626056578 103.03732584498195 185.89174806882664 222.60166430900736 98.21495971863634 214.9967432864488 131.08186467066153 59.37781992461207 24.783152856082474 103.02272631036043 -47.278468803159214 172.50924818816588 193.69253894068996 13.682195867762957 212.08130692668803 93.72766402160494 185.07944179772582 -48.93210624448646 8.832545851629451 34.87029666477396 60.81972394257935 21.66430126931923 -40.08902633824614 -10.86953372716678 -27.007457689160972 28.899720906758603 109.48065468873246 155.29254214684593 -120.70782865746337 -135.36695120408768 18.662544038084803 15.600770802767439 9.069172502134462 -131.77914582890685 44.32237070745848 74.40539427921217 -120.88219784164978 84.83017541787274 1.279262100609116 -5.049481914975109 15.264726962794297 57.34801471928707 -52.75202982636827 96.03860261189033 -53.97892608641052 190.5284407219677 -112.94272342392955 26.318790388389118 -178.83292114642373 55.27477148942593 -93.53262030645598 -18.334114247370497 55.23090270395516 -179.99920461167264 70.9118523145401 41.822243751001125 -22.35381269512729 18.152400826332368 43.1290341220435 32.782164792811926 63.31209188316643 289.1096427441664 -143.87597161957368 23.10849720278599 42.71793812758132 32.951849779518014 12.064996400851852 114.87196525232487 113.15998420248674 40.13727244042781 187.24087766154975 171.1015284035366 49.675984786631005 84.11994592471294 17.93788551051747 4.938513372736616 104.41013940099629 28.042938580887487 -26.700302827288663 22.007589618544785 64.63499703648036 -64.44779963779462 -137.67149364732202 55.327431198557825 2.162003661127756 -7.337225854825766 -119.71302055519324 144.14052545119065 -6.808038543763587 104.80548216053701 118.82126314360956 -56.50044005560956 152.88413975482828 79.5771157057647 211.9415791628085 17.539769799398663 2.0414156788127875 71.21487697452454 294.84903966386236 47.51053292304163 -18.678583365373676 -27.28459759697845 27.959683294147514 15.50037802536309 56.74433860535537 11.490445095841114 5.632184987309794 -38.95324282201715 12.737460777534183 41.489725629743695 5.369431048166006 98.53320740361492 12.805669282362752 90.3403395476764 -14.16101868854995 56.71035576272006 -4.176592992205822 18.00091605338039 123.65372220857739 7.590460250793765 -30.48687538263356 2.0844784257422737 -38.364973674947606 18.41000141782891 222.7676351984692 15.791453365239807 -36.40354897969033 16.931286218870895 -27.459074120191225 1.9669836228212578 -18.12237465680549 68.35224603569404 -5.664840095803482 -29.423377422241586 -49.602397878854 59.425705107983184 19.391186699413307 85.2416660951842 133.46928806178826 -62.40874400192489 -28.45694107979168 4.17519887681759 22.779458276308425 -6.3562255664351754 70.52978861431403 12.71222183006657 25.28966615466984 -5.944218786655646 -9.937326715000632 -0.8681791196580978 36.80558661447255 5.37991948360878 45.348480159391194 1.2107893854243226 18.716076461931912 3.8821842160996414 46.737556922844526 31.616491039538037 7.256907001730873 -35.184975670889294 -5.962880262749508 -27.236563906795137 16.480672223997555 -34.31085090645036 52.76986184643708 62.22618043298599 -8.877381505469204 -8.936053857143223 -22.55865553320352 13.52322033110585 21.34766132242725 -21.35889722085742 -0.710178820050004 3.61224908988175 -28.704048188322233 9.354803880845683 43.79446170825661 -15.781485031893153 52.56950958658677 -3.607663840295866 -17.696419675452688 -17.98367923440484 2.1986052370397773 -17.22607992079687 -9.575866792897571 -32.02382741071013 46.33431667937303 12.151770020133911 2.982600819447779 30.947176989089755 62.850686421356414 -8.782654581574501 -10.020304341283536 -8.530004949612337 1.311784236846212 1.1810562934227018 41.29723207811547 23.180355801575963 4.534056522181211 4.117076507853082 15.895574121897656 41.72569515001136 3.1264065846934797 17.863338604450842 0.5313622524631668 -16.888980711231433 14.02523220976117 11.0171171135095 18.08656228783361 5.757567454777963 13.160360752463719 9.211490915207856 -11.828381588582277 -24.845786656256127 -22.14344119575583 7.381760868667366 24.728413646611163 -13.219965887133823 -3.218554795847784 -2.6322745078557803 34.834891559116514 -13.149091196515574 -5.459050384175423 -4.9682267319500815 6.106854319187038 5.120749816643659 -14.408799092914366 -5.887720365444517 -11.014935979613437 9.203364467603686 -31.657824877146993 16.1829056300759 11.647677938155585 -22.19917868342575 -17.28683284559528 5.9413272327277005 23.229790256166925 -32.39300898067336 20.640892051965434 -14.104719151746803 15.33656316716996 -5.842364704608039 -5.297182251185346 14.52294006012006 -14.013582412079652 -12.933063123893723 -18.04851600258851 17.70067634060998 24.891715950884695 6.197212464043696 
-101.62243891875127 -50.65686236685429 327.6566710745027 286.530047570394 241.52272358624657 35.006257765698564 244.511729972552 57.18123285705594 42.32752246807237 -8.94774842360947 -106.99488233643187 -93.16406531029203 -104.91527974085727 -119.71493853339402 -78.97698197537518 37.522438514667805 31.518354271188112 -14.463354947988416 -114.13769221228084 139.4180070914592 75.15246062716749 -13.974314907096765 -63.985272264945124 0.9247481689782701 -6.2709963204261285 -4.239381263612698 52.608482169752875 119.17835559614409 -40.25950015267347 -114.24425097187789 -28.450287459903233 40.118013816496344 -164.49907317858188 35.64239248758449 -362.68004590802934 -14.531990886029844 -9.494785049740724 -322.5899641391659 275.7004113220634 -321.225201219312 345.6847708898225 140.22799559470673 -8.579869411752501 300.44182025610843 -98.77077984183899 156.14211344004974 204.5745486124726 151.64502456957408 147.25259148123473 37.57354574293324 -48.985203138284746 41.2233322804862 194.61186990501582 174.29890053542897 280.5316288757932 80.44095454820933 178.68314714413594 35.016953511365394 -101.05534505204935 -150.7196333467441 137.82960891573313 -3.435990881703538 -71.83392536968694 7.741552843043259 201.07087368119704 -399.3859963272072 -37.78521558609959 -27.48647117993141 66.62808542847723 74.5909123831067 46.15200432240656 57.28299501853779 -16.87989738099506 -113.3651133285223 -136.49930031478817 17.720126953879046 15.318340618701319 4.382972799714859 38.66732122527036 -128.07964936564693 83.40288571326438 -75.09799774635816 52.45127888730754 -28.205591100197196 82.24369582228535 87.27177194510912 -160.72303408970149 -14.177642617069411 75.85016548591518 -212.6971003062559 -19.904562405045013 4.568816531012004 -109.77338829691924 102.13124780864871 76.24615842477647 129.65579958449337 -53.87459430712678 165.7666656088427 391.9953545870542 -46.247989000915396 -0.33730945887390673 63.2464143785002 -115.88622621744199 -38.20857359363724 -20.872971444473244 -37.73190231363698 -27.17017082978131 -96.83545266533584 221.2211278948075 -43.98318030299673 -64.25652943068684 119.0265272820646 120.19545873065888 -36.0565890759805 -139.39193069443033 62.278347766350784 -39.54564833009081 -162.2897997886989 219.80324955146656 105.46621308922701 -87.42772459006689 452.2267580221051 -86.0398681308976 -109.11401422634468 -181.98839350479267 -12.690558074735725 -23.313067847909856 -63.98693434170719 -143.2418069095801 -59.55669567073683 77.92837324283431 -35.17587204954438 212.28075494230117 -94.38849884528769 -61.39473622084173 -65.96515301044914 -38.13727332781747 -108.39736126272878 -132.14822894423222 -51.03495384052012 -261.89393544292653 -454.44730958438186 -47.51357724453545 27.989681663620907 34.317804620471165 -137.012695908075 -68.0888485668551 57.05007940270711 144.98115719839817 -90.36669712184997 31.237056608889727 59.13691782886401 -10.654943641654175 -24.566250638495056 -78.52979751956576 -325.5814488688982 172.7499113540092 28.65367964599203 109.60307364318827 -69.26923943822058 104.67478164438546 -35.99273904234013 -94.00195096170545 104.82936436870415 132.40238889513847 -115.03967482551111 -35.5063939994625 -98.64410311633776 -37.44088708451468 -277.1941913115182 72.78932362047908 55.732597535059455 -47.97655024186926 58.68151239616945 44.270075875563286 -124.48597381207038 -62.542436333574194 20.266436616641577 24.770223126968837 -47.61362317023336 36.63094243003212 -103.45013003557553 -133.21758951782988 -110.30156021077448 124.32066606440787 -63.66434237313209 -95.3598642705671 -68.74747383750633 -128.0946019475156 137.2592462397524 63.62262394215986 -24.14069089980903 -195.21677636570513 -102.27853164262172 -25.53997975202982 68.07651380317405 -65.25887746953325 -11.380009756104739 -21.637144153748025 -127.73479640207067 -282.74515663120553 117.57718354014439 58.78997247276017 4.647938784362037 38.576800340995504 21.29273928016329 31.26783907609294 -114.6682262438981 73.15639975952612 -28.712455913222577 -103.83765005003936 -53.7828727595634 0.6628482322446848 12.809097836640595 -34.58738825734024 17.45461481508872 -77.72220898932798 22.599122450481953 -160.98623705590083 11.516939196853782 -39.29890486007938 86.03661430457666 -19.065479684076553 -24.36009450832463 3.1893162545790767 -42.88339237524825 -43.50627095464841 -63.010351514854975 30.915029402548228 25.219207680672348 -21.780132497249838 8.753836042316617 -84.07476359585061 23.667845935834283 22.352567565382056 -20.96409152938548 -36.391663643298344 -140.59809626112113 96.09452051774483 -12.650603164418401 -210.77188179957832 -50.45461888013921 -129.01858163365148 21.137084513860955 -6.4248369268406424 14.79298946614993 61.703035324811786 -125.27790589639585 -180.98935305618542 -47.08626473435821 -22.23518398884491 -72.01968217239215 -359.6270791911269 66.35446885430264 -10.863262276484889 -31.109092423109935 -3.603345080106523 -0.5907763161458974 144.70597051911736 10.670782743412351 -41.46295412244849 -3.5662646042039543 -27.71417112039053 -9.151518577639518 95.95369979315221 -49.70816833792659 -115.77996337000711 -56.44190350925803 -72.88167965799127 16.19158966967621 -47.516477795716796 -138.0891795250047 12.421992710872548 -120.12289709031215 72.32714608620488 21.346937206395737 1.578461288420474 -2.9023656709818444 71.27252285823988 -249.6371103997156 -38.89524621085746 39.46137310804472 -9.728757597582803 21.369076144564417 -26.039348722473594 -13.961621006004544 37.635817105016834 7.720609977278364 -6.445776154150401 -6.319974890115862 -68.74592927752816 22.502087998008847 -90.38788824345752 -21.49872581536285 -62.21882818801699 -10.659888784092832 -3.267776599053254 -88.59309795184572 -18.55619768916132 34.76597242029653 -82.30896253284997 -39.01072793281489 -23.072171332314625 10.685506957421143 -41.31829492872548 29.577071538091882 -12.304087105692082 -7.910021111810432 -0.04011602083284141 -5.500796134778878 -45.93710623690349 5.4128323447310125 26.46887035166834 0.84530117274723 -1.3406523480469086 -109.425850562328 -57.45481956536326 -10.497354048507189 -23.091709372028507 3.701320790264365 30.741838186333172 -6.58422342281954 -38.68213546022192 -40.47587813497138 -16.74548884878459 6.607998741221815 -3.575938132430435 -19.12262616657615 -7.234687003671079 -5.566317987324949 -206.70404736636456 0.48175297269233935 -19.185923285468398 -14.831094191403777 -10.939869179120599 -7.646709224349525 4.83887073729884 -31.208663684420582 -18.360709563759503 20.57067207062063 -8.94999668777575 -11.931526832043817 -53.43305008461048 0.07739548304722314 -15.67466931885079 11.0774203859477 -10.419513797387559 -20.980676812232726 1.9473486819961294 -28.53824725600241 3.4123841803775297 16.31398482750953 -6.622332923620617 -13.136604083698074 6.488090148195462 11.18724872067082 -60.6701412105605 0.6912206220386091 -7.03308299637154 3.744042972157624 16.342323986323592 -5.402209836235934 -45.42564053012423 -7.317925954228033 -1.986260176524919 -11.60109032561447 16.016289795863404 19.404891301673345 -2.096956412590601 -5.290626769419155 51.64241744170787 8.255404233510022 19.61510616286581 14.802796104852783 -10.11730309535388 3.650255627921557 5.83507267288211 13.86730941114647 15.78382032433685 20.827850280327127 -2.9118396338277712 -8.461905122191208 -2.7143606521070556 -0.522380304942377 19.88370626835613 -6.56198832688698 -12.44153672689106 15.687696576452732 -24.410810209808105 18.65279582611022 
65.52218134526206 -208.1679350417427 -121.32899225521632 -12.586445938748078 201.53485003853373 -117.27029362428807 -157.439887017298 60.93440969354885 67.6784270816267 37.52784027512387 126.41726659556888 226.4200587992188 -541.8789885986702 102.60122410170598 -35.71750932742193 -34.0394009274365 68.41508168583057 81.59889515053129 287.06871186590473 339.05904147869416 -53.5126394616421 195.65121675504608 124.01322551096712 -3.6111232731642215 26.798511552512018 10.172166462817993 126.41331553226729 -54.50393042472507 71.20993609374747 35.337944902596305 84.17524276576975 49.44452505106949 -97.43590134532869 -67.51410299475799 381.2426588577943 -4.8679240325645265 -35.42072403956549 -79.45704733030053 -224.40952928297358 400.4654121632924 -393.98769346652807 242.28497661522567 25.99346994068804 3.070625395270015 33.15497424542806 36.75382980976018 -94.56551468087743 -51.72009517693733 -32.15079324298525 -7.13949283048075 118.11162890548694 48.430038558375315 31.162521063588798 130.9181546369389 -65.16149245048129 -33.31765841468956 165.43337058579903 -149.58700622234727 157.0071527086754 13.546180285429108 -92.00210674964501 -40.221362889646095 91.37709607326809 -141.50386216940444 7.6901047620245935 40.84633893321351 135.6991902522306 107.3051956043706 -47.46350966832718 110.40218427157033 -179.21925090294405 58.28508468310798 -187.9332737551315 178.25623590987436 -119.53522670864915 111.08666928340922 109.50080524567097 20.189930231117778 237.86216422442564 -207.12543919864655 -73.12004447402495 237.2540889811251 158.16534868898373 189.6532220304002 -161.42649097920628 -86.67528869754103 108.59972821385692 -4.057030754696639 -161.66426235966077 1.8504815971353248 75.82817342453579 -103.77904204217131 -99.16021778005619 31.419677538849243 -114.87210341909179 -115.24347746394353 62.73694763031402 3.9441153210602153 24.951235563272697 -39.812770126609315 77.18723525949093 51.51554684036402 40.882466296562875 -121.19372444590697 -63.88552338250022 -48.34332432969285 -198.90813233123276 -215.60752502466218 15.445884191515589 38.951029030195414 -144.1233340277083 -186.31828779014393 -315.76915296452705 -57.556174270460765 -172.35929333366948 -58.419985410411456 -91.08449372126277 163.01400786866188 160.54699145623368 19.176119427979984 -114.32942960643905 261.5958053701347 109.33524169172348 68.4164765436641 215.40018668293405 -32.895999194405654 -67.79073119273797 -0.3738777340714428 -136.43304544382772 -73.80177579658445 -118.26739668940216 82.24012875327149 -411.8031494609453 -55.75309717764569 -138.73148660150068 -177.84562474374553 -13.109859641776936 -4.602915276224397 -24.39991067863181 -44.456420646569185 -266.1331239056375 -150.88696466804976 -92.57190571204488 -177.7938427260575 -75.82086306682908 -240.84690467339217 -66.27838737993396 -231.8019534624801 249.813351659372 16.718368233958266 -56.862913300231014 -18.143199035253012 -70.07659791632244 20.880092625214143 23.587600700890544 -96.19447728035027 133.2176966177839 -96.46672823322956 22.068194728714197 24.596705824666174 -58.02619473861396 -43.227620462629005 82.60246397429844 -46.92045849999493 -72.08116651501363 -44.000099338492106 -83.43877824198755 40.03503104549628 -87.77003940817949 114.53361071239328 285.7776006951604 -212.8294328909432 -15.973350819022299 -215.38452761499687 -57.782090408173914 101.3716782213841 -2.375963524447516 -29.4730742967766 -2.650391201183321 -13.464965483355693 -151.0604271815434 -21.526955750332828 24.832730861257186 -23.622324555503823 60.352948523679046 -124.59954933867331 145.32914643670648 -99.66946221879763 -59.30457505056268 99.64180112948812 -128.313127675422 29.837215497065518 -65.43614022287913 -140.58424502636097 -241.84713232281084 -184.50431636516666 6.539296944849385 4.118566397770403 -69.53652843507336 28.967951000441452 39.25666376761177 -87.43992855759679 5.906794132672156 45.72929058152736 -10.573538404988442 -32.21065380932192 -157.89452016705357 -134.3919231079634 35.775951914808026 -58.62031370790949 -138.92043569525816 -128.9932158910752 -96.03220639930167 64.60992104827463 -131.67500950361094 -46.36737496875812 36.61947689405321 -22.064405574846816 -71.26639439462504 -128.4410633611722 -174.7064660730046 118.32147445348897 -22.86911459733261 -61.75397714200359 19.555779434962812 86.13859784925145 13.296973117159467 43.76047042599094 -61.516542618939376 212.06079910446635 -159.50247726417345 36.42104564854674 -41.415074821737974 -16.146957832275106 20.752911946753276 -21.708386214461953 -70.20286799599576 -166.19550649905855 21.02599385376744 -23.508047387039383 -7.171742937028143 3.5641040770022085 -94.93760523417279 -8.426273269086153 -34.55781325658519 -22.749727753300075 -50.74171477631269 -6.73573041520803 -164.83422306382332 3.453456036626959 0.802041897761324 -116.01500458175298 -253.42130329912837 -95.05481381746102 31.540445616457248 14.132322365540242 8.547545489345556 4.355884464258236 0.44565312135608576 -86.02300774205727 11.600973887254758 -0.8917869848483015 -45.13980506320214 -133.13369544406325 2.221101387045318 -12.028797470546005 -9.536616266452581 -22.09881970724912 -181.0317304990089 -21.610686788136846 -56.611792022814484 -106.47628134115317 51.20327514617912 -52.55262925733279 -108.3894118169514 -6.780139000660401 17.264910461381064 -127.37768597518296 -92.84088285219399 -46.47786885145241 -37.92053080396652 -49.672067963263615 21.898293241142387 -23.308684676278276 -145.47888557936548 -13.221517657181929 -55.842646161377736 -18.97740508467841 -15.697983433279132 -12.334711266873567 -69.06222070205065 9.81308653349632 -43.42676309595556 13.411791976541283 -58.626971196338395 -4.224240351714185 -15.337985250822202 -51.59600942343709 2.185278125866667 -36.346445119264985 -43.84564779839503 -124.66216034159713 -22.283732143050475 -40.613635849383485 -0.5473844619502174 -15.242548781403006 -18.963511487368084 4.387146219204277 22.31036257929166 -4.827628796922878 -45.24233733049573 -10.982973212399859 -23.984916915619415 19.464484503182906 38.42381464896242 -60.74946988287765 -227.81168364253392 10.383103276070468 -54.481696504303464 20.15576642608374 -13.03513958186836 -10.361462690195001 -31.925241451642396 -101.34035504396262 15.123210061535719 -80.37149760071286 46.98888488212864 20.769884651327512 8.158839701427146 41.53125011532609 -72.12874325118528 -6.322083920242551 -19.721793669209962 16.21777036651958 7.952259192378545 -17.14333711185958 87.82509915671936 -15.924476980337488 -2.9342087777273482 24.727930557512327 6.033829764973122 -130.46295833797635 -28.795364359507715 1.2412306245212479 -26.676266295623034 9.459811778173064 -12.083088969540924 -12.225234563055352 13.15116907828264 9.510312018122805 59.14379216288231 65.92571294654743 -20.897551390436703 1.5577321530413109 19.589436147319557 -38.294632077115445 -184.3490475356543 57.389409240353324 23.041715845430186 -3.9844837725314473 14.055842311369 -4.11408201871217 -97.28095499116802 16.727175284176873 20.51647687326795 2.096675726346136 3.1623583143866636 16.317667585121463 1.9723921314692172 -8.701247306994409 13.891424847940893 -11.843767944068139 -21.715734257196853 1.2108702612508577 24.228778434916755 -23.777705400294025 9.409566759131877 -16.918726046023817 -3.3925487342528173 17.8184773437136 4.447098189510765 -18.92263368136394 11.868893061768913 -15.589600652189755 16.01553300979773 -22.427470168908112 21.15751808776119 -6.9598415744186815 -4.7519929574669595 10.8501042705983 
-76.51207336689515 112.85174407110439 -149.44212039907316 60.27815398786631 13.982074219198793 -16.774627201638186 -29.53340296697497 -8.649508779839088 -83.73536028593145 21.71083625438973 63.092345187633164 -11.848295354320081 214.63859243606967 363.83782704457263 281.7921884513044 -35.704400303494566 72.13327304209174 -135.26666557597997 -89.0090459018778 -189.36045692742192 45.34053613127014 199.31774215777358 71.40052054171151 -21.39519437231745 23.778497757105 -19.223253065496937 21.330445316817503 141.85594833002045 -51.373501845944375 100.23641569584531 -267.73105274696707 -67.66030358889563 -37.248053848749294 -24.233954666387433 -185.11284617588453 12.103773629714476 97.07356497473337 79.7275205652335 55.46878317881862 10.103179522809253 64.19014072312298 34.61847977687868 -66.03374288362724 117.26462824885637 96.95630097156746 -48.59207604913792 159.3637457475219 77.62001187184096 -34.14824417700173 117.31815391059025 326.18563817756257 52.349090223278594 -21.6613836599278 -80.18237429620154 -223.17592013583325 -18.324709894147894 74.99880997706767 85.56144463365082 65.88082464151735 -35.73473601681189 122.68763956858899 -3.7387517281934426 -83.15242128103912 412.32716180217966 15.520375185904598 2.0743861633300185 -69.62280779233734 -107.76725457612893 -10.972291704530404 62.00074684474797 122.17348603570811 -73.28731361815971 22.627009520298028 119.32163139989 14.55500907797183 -5.548541581894489 5.788502119046201 86.90839980885357 -18.879500272130212 4.2082760467818146 -77.98402552631254 60.08318552109481 -131.5269639954734 78.70887154811516 -43.99979409294767 -45.88717823758101 153.49367283155792 29.795052731617684 265.4376736027007 139.32861037300594 -200.66545649220825 13.024092390274857 72.39596029011734 -6.73963143268187 99.48856340723525 19.816202357918446 -66.58143865036597 -34.05294237814542 48.83464597924246 17.370030927650646 -54.27932627913242 11.352411761160194 -89.59331188394067 -27.165394656302446 -88.79448631517936 -78.24893911533171 -70.0185976839734 46.341202836249735 -210.861149154539 -114.14659786171862 88.94822666163066 105.13437437335406 -13.260517689153687 -47.13322908631477 247.58212011511276 223.4440326135831 -126.05583286583571 -157.64871536166373 -268.48434330719414 -70.18373782896543 -10.170943789865584 112.47943357811589 37.65773474559701 183.73856546785285 -163.60300834555812 -8.138882382469605 -49.50769423449052 1.5385999405989752 -156.15568971646482 -339.5080463328117 -47.97795335182832 -180.78863700308648 -16.050666339933144 -170.07658140437914 164.3247435480905 -66.57705234440454 56.53925712366255 -219.95887587378118 -27.814989778380518 -42.73771790149855 -392.09577225729237 31.841660233028605 -281.4496634714552 -14.766471664725557 -260.28468362416237 -153.62717213795764 -96.89713087653656 36.95691608253449 -514.8506820551579 72.3543197575344 -110.40126447934091 -32.28738119423384 -2.935988716722809 -4.673688286766188 -190.67815574595363 -51.74356287157297 20.09471098795748 4.088162236581451 -184.75942350967162 -87.15669221075697 -220.97735220885878 28.70878853498977 58.64534365595983 -90.73413664431607 -17.66048871484785 7.754181753843919 -79.74510216762319 -196.2782665598376 -99.38469887554831 -116.78719943080013 51.368533132758714 -105.06830591672384 -48.69283394859365 117.82065803557656 11.228848014280787 302.6787366983776 64.69612718351695 -175.50788097604305 -69.48820655273595 14.805228527406047 1.686827470355963 19.57813739413582 -86.37953848718264 -8.726722703641366 47.19400122262514 -123.33349215559383 -2.0136353703408956 -62.28228702937395 104.86535500762899 -120.03413252840464 -297.00526235950144 -10.931081038904239 -74.99992586916105 59.04305587244238 98.62742378199573 -62.65850772616324 170.34760472836592 -131.272974215082 -46.145687179005115 -96.08531099677919 -108.92308384344969 155.94620270420597 -157.00871662351634 -183.2126375027597 -96.30439726808261 14.709829707514631 -24.177183223837634 -26.29949193073543 82.64678981792342 -24.94488446496328 76.94516645252068 -134.95710834178374 48.377472959611126 -21.10490351325662 -125.11702342922624 -88.13448586208744 189.9619236869459 20.620567920323378 57.08296703038693 -216.51420369284978 -158.23127822031137 -110.47068544642073 -66.77623885310969 -50.46832265748486 19.565822994325988 -47.078990091371814 -162.27209883056926 15.776631611991084 10.681626354176354 -73.10237097024172 -38.111011335879105 45.34214457488763 -100.10588475426617 -13.698980871779815 62.3971896360951 -14.112004480613649 -91.52913400702685 -105.68309507924644 -70.85028471956727 2.907637805834606 -168.63032544684103 -3.824769894661682 -43.921311028050994 -22.608713331426973 -42.28206587664106 -31.48336495883168 5.55616463953687 52.41825731506978 21.354271842953295 -50.41046705987643 10.389762346896894 -101.42153371159927 24.63647104630514 -54.11594718749302 -28.300935543942032 150.70859600764004 -25.650006031804566 23.846001167993062 -30.836487330445763 -20.746310357480322 -8.150484565652233 11.3881784397918 20.25924305696537 22.56527567769759 -8.303080860906281 -24.547678257300067 -47.13481450128895 -3.8172934631887103 21.878473115415147 19.307588372706533 -160.1269861151861 -0.9997841657564212 -59.7532221115478 35.88438479091287 56.62275457922906 -16.389443329552563 -3.1755803063006947 -53.48323828799736 -189.49516095332905 -60.89229110142163 -156.7398859617453 -14.272260927370468 -26.299491071808013 -57.25910127137434 -193.57267298833062 -38.09546689365752 -92.93814439505849 -0.1646106816559498 3.338835068275987 -6.14870621331773 -104.3480583123507 -4.685030263661711 -39.996800032214864 -12.154193700096343 -6.0730017569910135 -11.611054884268732 -8.156517255646527 -43.48240511342858 -7.58505570452353 92.51449793128805 79.19663500470465 -25.868854853111632 -9.35124556489602 19.330112849694338 -186.4461940063799 -153.93636906418533 -59.39534036442287 -8.167651729258642 22.15027564186474 2.179789462137242 -4.425145601336215 -8.375778637051381 -31.317958233693002 -19.486462955259967 -1.3817012213041207 -82.77469544524325 -88.83284349198999 -9.509734810774416 -11.056192756408647 -24.212052397057487 12.744707130168358 2.462657151043554 6.695312418066912 -11.406693082554826 -12.025724710258714 90.0054288316125 0.5342523431383179 7.818450550548299 -5.907885271546381 -28.42609912900731 -100.41489413202984 -6.360137879396577 -3.8292757615242925 21.8572022578114 4.291867139832898 7.637943317571846 -9.477606805210074 23.420201363777277 -18.23390566762964 14.775019666411408 10.13466318008378 -15.976890084941289 14.589183669553469 5.984661655977433 -38.34266047682603 -0.02826477235618753 24.461449428579456 -21.16066111502823 -20.53622020667307 -7.767752715699394 -1.6223860446388372 16.807212209071434 -6.517261010427439 -21.499449329383747 -1.107993741937021 -39.363119519317955 -88.34189207915237 32.253002927066575 0.7389421810739507 17.24098455763473 -23.552014036251776 -12.955774567157276 -28.631431674546793 13.225712422532851 -8.458347006630232 7.8551988028691335 16.120820166491562 19.822173664728567 8.745866838599936 5.870857734141815 -2.7007744845453536 -3.6872252821933165 -5.324612396610574 -4.672190610786777 -8.602310242232695 5.580203712498699 -20.06957276642735 -11.077095958057676 23.812277636453963 15.76971270737945 -22.99305683705447 11.051073771574101 22.079764597636228 16.126043252050067 -6.464327362066825 -7.72301289535135 -1.21354773734595 -10.492037323919602 13.36686218155762 9.323633561404561 
296.2178420029154 96.20302964916851 92.44570291092454 140.77084343402097 183.89127536533476 44.38852371966981 100.99781753104699 229.23246076425949 -20.16751390354886 -12.900137499733182 -86.98433681610105 -226.18403215481868 40.30081799973297 13.141241509166628 -9.009311930845483 -40.440828154883505 183.13724613563053 -126.8969343649877 2.043906025364807 2.0412634302282933 -0.7043351730395102 -31.903816569141288 6.270729721364279 -20.52645465438629 42.80135666419157 22.16535657885157 167.2128552807816 24.627648806565787 -127.30914759134168 56.426471462230936 -7.009420275223697 152.42395671335828 107.74554921180746 85.8288438796076 100.39410864046462 -21.039521238661674 -33.389712264286366 71.10201407126709 -15.575384007038778 7.348508062504664 43.341479637962955 -32.28190894883791 -80.88689346165769 0.771389638223971 33.031903750069254 18.212185407763723 121.40616236402852 22.5171526516405 28.18629013451151 14.92574100472745 106.82202195079525 31.129382314338635 24.330795484712198 83.46736493836214 96.76675731594294 246.4533172899196 75.6091180068249 104.38849388308775 207.37710404233482 -41.52991122516021 114.85657572580361 -93.82613009778484 -61.62952773356469 -146.20842389780606 78.5278731210045 157.01575194187757 72.25836546013228 -293.2549649502081 -65.8875722979355 129.1249239121629 -93.35623566508887 -25.055124182664354 17.95679161020951 -29.237890365926233 146.1425868569195 21.4679882489652 -105.2241552632296 -59.8959463265906 -134.98135110091465 96.65860483579605 -215.54090395238262 174.89053057938008 -56.73520740636795 -218.943378970147 70.67332601618521 204.86825537453132 107.50553480858335 4.242369902611152 -123.7815021545593 76.98495407836779 107.24657092168118 173.91094256229545 -128.98353230048087 46.54284867002562 -7.237434469816815 139.41811543753585 -45.839870576885346 -52.659260747092986 112.35621785362333 -99.39597518181644 -14.429110407786888 -7.081901376824828 -41.839950373607394 -85.5136440440883 241.6948189638686 -44.27687413939025 166.7766675516473 9.602431237963847 -11.43405205692508 24.5276998871382 21.054737264833957 -238.09382953985568 -322.8433070974747 -59.45403185965587 -162.2396690369708 -178.36440862477238 72.6621215260296 -137.1067486907409 -237.97411676545437 -6.932124995072281 -47.12716654910634 -270.3871076389349 -224.39367341687313 -30.693894585956453 -259.43246826337713 84.32839462610877 16.221309217967587 -6.969649705426154 10.459500136962511 134.47556181497296 -248.9250642378975 28.18150804416844 -77.22265745374315 -534.2934317884905 -286.36727902974826 -156.52697366462826 -136.50553773859187 -273.4154945296021 -74.92548772729381 -36.386020001826935 -95.28137618831704 -439.26631397938405 -265.2866555311033 -330.1569376769602 -217.84329277420713 -63.807267027426704 39.67690747613406 61.571466449138285 -318.70944305592684 -366.7774359490174 -110.29747875756298 -180.92651544131206 -190.8367808433938 -24.13684206218793 -114.60441479620889 -27.72977759367567 -11.17159706779646 -26.842431791329552 -182.4581233555068 -77.68688435565738 -298.7230673079661 -35.42907955198019 -192.94801114411317 123.44007158874784 -130.64836701935735 9.657269171446163 -122.2652949214255 -127.1323176753949 -326.3567813749878 -62.21443440446214 -180.01392956604488 -228.29946136213272 -3.1904791096978546 -278.4195074610972 -239.31760292501772 4.871802671692341 -189.36068381243558 38.82459377517651 112.90432848854282 -40.03280941233635 75.0919108612949 12.8417308047217 35.24021366418514 -64.12873375015491 -171.61457021309903 125.63029913795769 -193.49814733018798 -59.12340530921206 -330.5199848661023 -47.11193682342847 136.88930788125464 36.91091879824725 -49.738812354853856 -254.19817245863973 -66.47463465502469 83.7101390241194 -252.02878775347966 -17.538242040865374 -13.327955704740758 -106.7182676870383 -182.85697691894808 -133.8856927049993 49.8285709120607 -59.92326608965101 -1.969925808841176 36.53082653264262 -4.373565764341663 3.1733956662537994 42.28902969037438 -62.98986460654677 -25.407343603455974 -283.5310300698351 -126.07064348341278 -20.35317885869842 -99.09207696689077 -70.2500025588836 -189.99178205769874 -56.637852381957686 19.99705155109227 12.250802617353683 -51.44746515642954 -167.98812882638114 155.82884651194854 -12.05034485229678 -19.129566097336646 -65.12759211934498 -50.8996832553081 -156.14982176935968 24.608016194818383 -68.86172529072476 -37.29517804458772 23.10668318763534 -35.29389623484039 -44.94767490090198 102.30106141992283 -55.298520088494975 104.3199379656578 -180.19723196740202 75.30678662748022 -21.80939392873399 19.7192603710804 5.831472737517289 42.300291948915365 19.495676708447824 -15.79328282560259 -48.2271246551241 -92.61724981504086 53.06959675828901 -81.53604499845439 -51.87309141791903 -20.54512899093474 -6.6999631471852625 78.40454196367433 -105.92123541844396 -32.43641637061464 5.693487037784569 10.712442715026274 12.81333720641088 -111.74670624676247 -19.039844079804684 -69.82239561966769 20.33684742552564 21.764120946499588 -123.76399557826664 -183.39750086368676 -4.181445364322485 -206.5159588479486 -3.8505366211799186 -94.80681378104379 -1.6169399676566691 -47.58438334343674 -6.082772431545987 14.599495461915728 -72.56774703758909 -90.25441077754105 -43.92622763551518 -9.373539052794635 -45.293920420151835 -96.61355781536662 -13.154802157579235 7.387128088712771 36.09769370590469 0.7343976400442672 23.733292902474048 -0.2810905794196613 -22.715411325194527 -58.19512240558705 -62.279263403180444 -5.604855328142684 -21.492468854250784 60.23766617209836 -15.401612835948715 -36.10522245112603 -8.22790632912939 33.94859565529254 21.118125040704093 -18.619318444455878 -40.232448020816705 14.303780272544923 -9.482374784256592 -22.177337774030175 -9.92469823280088 -7.367606882917233 -62.86788124443082 -90.92325941949619 -89.79855284535935 -13.439192916585952 -10.228088646725887 12.096509506213165 -0.1436931632341028 -60.95837710886559 -14.624191075861539 56.677322011166694 1.2816904756776966 5.7446427575347085 -47.60216569645218 -83.13759016375657 12.814785311848835 2.065982331461875 -7.860034904304474 -92.87352371410391 -12.241808111199694 -76.24039409499436 -28.464353061950426 -24.205969941892405 -99.43520111780352 69.77528056502094 -10.221140385099355 -3.9328024166604756 23.88612278142063 -79.49230355677796 5.953811649093122 -17.590755770907876 -11.804471063674876 -10.205341883564653 4.922825716536932 -40.425902783049345 -56.291285347263134 -68.06174166418597 22.539216419693986 11.613344069883468 -19.94394887308418 -57.557094413729416 -23.046402875342896 4.9866194215101185 -18.274159269553955 -7.06289816598385 -5.443196403947256 -6.037899654612721 13.886757790792078 12.213748564240824 77.6978522090621 7.098674194277642 13.724873457122818 24.97882181761301 28.149096759124937 0.3960709643069745 13.250902566416533 23.147261219673396 -20.47708110899882 -15.664481533322949 10.020232982518936 -20.048734275944543 -19.50368554672158 -17.137872693969456 -2.7940406742693455 13.122872700982162 14.898645592847464 -6.967748859866065 -3.2837228838667385 0.6356731749771491 19.40784508636452 1.8197886929816842 -5.201178553770488 0.9382321403388332 -4.010962352621255 7.391591462786887 -19.76741632798225 5.2199638440428 -5.259910051235517 -14.9221531629936 -5.737713558883964 -4.315456760033356 0.4168742716056308 -21.621021786893696 -9.913565795760329 -18.392909392714724 -14.63007940910784 22.83751082376399 10.596748263193476 
108.68959161152247 -192.74006277292727 -36.832576020256695 -31.437975593275354 83.84383112765157 -78.20988828154654 -290.9954654240757 -62.53895810806405 -23.562974505541085 -32.06393883949931 11.452929273775963 -128.64905725780199 -82.44667302386233 -184.8022229374993 79.43451382622723 -92.50230721586064 -5.691495314428949 82.52351066379754 -158.82265157229182 -5.1570377146949085 -1.3821615759347794 49.531656970960846 -78.15164620244748 4.786264121280431 -79.5984812966672 -13.386650597769336 46.972266762551136 1.4633797281715901 -256.8520026192246 87.14674654327456 53.00919215185523 -30.599064027531156 -130.99153651759414 -22.681130522802505 -119.13143163313008 -2.6249718566417024 10.39534524884122 -248.01282023894208 10.64887931145726 -131.80162541689688 87.03444550836521 -120.33376765363846 2.503885544351312 63.46650344864469 -244.38539792307114 -81.83013286052226 -68.73485965535433 -7.598545601398865 3.000768295102694 -7.8844553253130325 -113.52457016730696 -9.499646660977858 -108.65349470296736 39.808219797792425 63.84511873249258 -126.73364236683358 63.42793593060434 58.811088705515886 113.54154566556326 -228.96036109822265 88.86865951342253 31.52547896619997 -88.48839480019795 -38.540007196688684 -46.297954677706294 -151.51894676313083 88.4904239763907 -183.6265213673181 27.528157136435162 -95.92908782975167 109.29124431827961 -58.3318290706054 -131.1393751301452 -105.5858150256084 11.164375338441069 -23.406298069138355 22.07003000437081 -36.33471589288542 129.06542284683894 -200.81436002592793 -338.18334153430345 -73.66362216872554 18.834884457323263 3.680695946571002 15.483001365605837 5.199166950848995 83.67455031217996 43.45892369784781 -59.34045081263996 150.00342673269535 165.31737946350248 -70.82252910120091 -211.2559348807712 -55.49265268438713 26.328250152236084 -35.50708784878867 -87.4635974573378 87.96869360162762 82.00779554546914 81.29403721898949 -92.80539770437055 67.72803811689964 15.429916807737026 104.61999395091458 85.38205918686111 84.58181455173533 256.5280174634095 -41.64289855044783 -116.80631692037602 67.64595429935163 153.17705079444096 127.70316038736522 337.83923340677234 64.79218935759386 47.517404648130004 55.83862495732013 109.69356818409975 -97.676280498459 189.05224580526902 251.2774597644026 79.5972591962145 -126.29340591798957 -158.07469362759028 230.58252804887704 -123.14948169011767 28.467680736761636 -4.365759789355113 15.779630685119315 68.3845116733379 154.15146493099994 219.11572662614614 134.98475085661087 315.37178761272406 212.95518634130053 185.74629373550127 121.76535182533907 188.08936121720782 198.69581316756964 189.4265493351946 93.20636299566361 74.83559263115737 256.57581099825376 132.75659348595556 254.65997597467 143.1062589924259 88.54316328014883 188.5251124733086 -14.905463722068433 374.5823976956828 237.39886983044568 353.31527560113585 -7.307150120276021 101.79969576989527 44.75905340931082 320.55217859792583 9.570068497564318 49.756082935750314 -79.59329935149258 -151.83092638328483 83.04496493521813 128.00230035427364 24.409958594930554 161.0984155302635 112.98845556427503 147.51240000294365 4.636463578614077 119.70596911825436 -132.32715700094082 -140.71540268993138 113.13151751236096 62.599815767795526 32.38911130235058 23.39356256718856 208.94358067378087 -57.9582255505424 237.24851443905268 128.91689209961874 80.17938038141574 35.477587637713654 6.207441753385552 130.33060042802714 226.10326357635674 -16.207665517587042 50.80891774857778 54.865122652309644 180.7997083212212 -68.88520260796881 0.06095093500529802 174.18655411842354 8.971603856534646 -165.63202531826323 2.1674691886652897 44.160747560913215 0.9832972977106251 70.77321531502973 164.80532348660455 111.91606164214357 -15.88479956215188 -10.516150156060615 68.13188660691571 211.65976253952533 71.8061381821142 88.17987022891272 -59.089052467691054 15.986380708101459 9.850082083662299 260.28580284812534 0.19893798459508721 155.93391821431103 26.08802414942538 88.22343498776802 -75.3975123445638 31.823876113003855 -19.5714317946186 -157.57483065769523 70.99055630698491 214.07671923926333 -0.6959295256110622 46.69427534501191 52.77903946039715 56.36355475674539 39.60284461922109 48.550957274874385 23.62346560040659 10.573259922759242 108.7477061983171 101.8694740383179 10.590574821681377 137.4002500002595 38.883250223546504 10.768801953826289 -66.93946920899482 21.02084664893177 39.422299558514496 55.568211327336684 -4.984865918851552 8.008340864733016 45.29750739565949 226.46349340054232 14.960585793461384 -37.53868578734824 8.902751550092386 40.53552193542328 -16.442451104306322 69.47642967010398 -55.8986809193656 -39.57801671530738 44.23405870679896 79.14067756225465 7.192637247507984 -9.558988777445256 160.867388539684 6.561697927846518 47.379571731437096 -26.513062967642657 -4.279974884460274 -22.020135009502965 -23.374919993791938 110.69149003031252 -1.9768750742765988 34.734135094454295 -13.02543600215762 40.68872248166938 -80.50532479284261 89.07026981818042 0.2808124477593346 43.21675294152112 63.47176787004653 78.62029583498708 13.530968037715873 7.051947615689114 -100.1641360075928 26.200232002892445 66.81704549399976 18.0663887889802 -2.2198000911446183 -14.683573823181893 -50.6013643379433 173.3370713846577 145.87741642504224 53.3270604825737 -51.13882850853483 6.11950437319701 -0.01376402758638983 79.2968796166694 8.529242151538254 40.618000515228275 4.98983039991719 31.431228602871332 40.542152758526825 19.19475421998671 14.398466600109838 43.98326471283679 0.7144363967417356 72.41652666205025 -12.423987737770432 1.0402633523951632 7.990596509259808 -9.321527850376622 -176.53299248121368 39.45590808969994 -12.11286881974013 12.958747119482027 101.22574755418724 3.1338136717344955 -11.319496990269597 -17.2764433547982 26.040479149703287 3.877207864792825 7.946396626336923 -104.16070050813079 -5.402281715232849 41.81136181091347 18.04799515657362 -11.855501133482512 57.2945375566257 83.00348807394407 -1.13706768350088 22.7792150386561 -14.40835762793101 -16.127381219801304 -23.155501857410982 42.11447397785096 18.791597482744656 -8.39641447013513 18.87310903667797 18.083095479829357 3.025847647804683 23.21589083166694 65.46834130315993 47.42155962311142 -123.99671662431513 14.886956583933948 -9.337449995339789 -4.683692815481091 2.828461251068736 9.470852998759524 41.4490498598975 2.542496008941056 -8.20523773270039 9.24621973463834 58.9206223013011 56.39606859140704 14.474108127158162 10.087447322687776 -9.276788065567334 -11.48331474161524 8.633731580820541 22.9768519407473 29.13979737058752 22.607699185563877 22.48829211413722 4.982011568539307 19.491579736664796 -18.33543932709949 10.130641351682232 32.00120449926994 -18.093153241266844 10.10884775609815 7.833733118500896 -7.777406643591505 13.40535993719919 -29.22878764525012 11.83117794478525 16.477080401289353 18.83629151708139 19.83705715358977 -22.825862382894524 -16.249224106064464 -24.958592458351962 16.37063720343751 -14.933318839394397 -19.514676000760787 20.05107187383683 16.756386734315235 2.630143965459067 -1.9069585193642482 21.95700328525763 3.1926297582673233 12.28888291049451 23.059661050666122 10.812568441114895 17.78588626533748 -17.979127283551303 -4.343625107613491 7.485726596212541 -0.10555949698956171 21.591339080955972 2.1363638138722743 -8.617483223282907 
43.15891670050297 -134.52545336664082 55.59446094543506 67.53877942081262 20.226994641831325 -265.4184974204693 -60.24299552748528 72.76246831800789 6.75026915448643 -49.11784141644422 -106.75706020501254 -73.3692828485849 -237.82805010726997 -134.12289519172214 -60.71672619676739 -128.34199258396436 101.16630409588177 -311.9643682290816 21.133431121224163 59.659086626084616 -9.52925239280018 134.5870125125526 -48.33578986814966 -1.8600500205404544 -9.789670770696468 9.437522983268114 -151.55506401427198 74.60920061367891 21.90845218473874 31.580285625185404 -127.16020987649966 17.816410851715794 37.77215907350047 -59.31710036757986 -86.59304107013219 13.447837753849253 -58.398166726729336 -81.0740763670436 -79.6019677172671 -81.0847454376912 -125.28667159126488 31.928670294345906 12.586221542134341 -104.682904204207 -49.09721537034382 -89.70933201073187 58.22510907365613 -126.5353625168341 43.849811531583384 55.66758634622147 -50.72908200947794 -25.13633339441226 -116.98080830899721 212.33415528520558 215.0832181954264 119.08602425207327 64.66066804381491 -314.0665661157691 -73.45967452509818 111.06879876365387 -22.784847323124147 13.084853777164314 -33.517766484725946 -105.66887998084023 -34.882583549931915 50.301058810961514 -195.62615704527744 -19.530065220918836 -188.98973574854983 50.41828063848879 -179.76586875081554 -85.52083223456516 -6.363518086729656 -52.197345511505404 35.78198824154439 -107.83299855831825 -29.045834449962584 33.27048750584166 84.56275303275304 -52.46805711056555 98.43375275619573 72.25791616157028 -65.01147070318825 73.59604288119215 -162.70099034122194 64.07737722902726 154.61680831788297 53.91293730380853 107.06888137444228 -99.29053934874298 -238.17876455508932 -65.11675641619802 79.55054571608684 -18.138439197388465 -46.775264482799074 30.010877133228202 39.853278213757775 62.52881099694103 -65.27533158486949 -63.47885120132972 54.3782263629226 32.47092385111793 -185.71488592706652 89.5436757988595 367.60206400276405 -36.31510902411933 -189.47303568071877 178.5314002523942 -120.89825696931373 69.1010201509335 -17.239794942507775 -98.68805247991769 110.24831399018518 33.67586236875076 124.33843660852983 -173.08504912343352 81.49013667172211 84.1394709345394 104.42054932012732 -12.847601407543568 26.226058276870816 204.74340247630542 160.40156946912856 86.59465595668765 -27.046252160410944 62.33670680371008 -48.92551630068319 27.03204132670545 119.42439771144998 68.93439656913738 173.80965929063666 130.61348170710846 263.79055082092407 203.96448273971095 221.76811199121195 115.51847699893713 392.9178319869581 96.97234924674213 113.24105344953789 55.878572592373594 160.94873923528345 226.27685890552056 190.47669612247822 -72.85887358470166 286.72892974856916 209.64646566036413 126.50681429031877 294.89567763826165 476.7557537314616 117.47799760096697 291.23684451525787 75.3002354396503 178.1025344259363 33.01659475053577 91.60446419167248 178.00831625759363 151.3195199996826 -6.046718867343246 29.588456291415216 154.14077475378517 82.02067976442665 -107.43563060717221 54.10466103313056 57.28588070420079 105.2647044086861 47.52093516180097 62.889300643800986 277.0007943174671 -42.7447295216893 89.34226809639657 137.965385460772 53.66242357096541 18.464706236360673 152.57677381993742 335.62482818779824 205.765143772456 -242.12189596214512 -101.87521125943329 -2.4348765056080186 -2.6449006460876903 78.61357859864248 -194.5100462720645 74.42651753877067 27.576635277053665 -115.18040903893069 210.7830017092154 62.67279580857966 0.11684435966374736 23.73492154126187 111.14182804466192 -68.37020565345516 -2.5241490123201076 99.87471150477077 1.339509642203392 34.01955181939358 -168.04552469078683 138.89654378548997 -14.817849559280345 58.90467694495923 9.107517329045072 320.6467277484485 33.33227804726915 113.92836154549971 36.635908090038015 10.632621852601218 16.100830320228344 67.08922681618618 18.255045640536107 147.21637941339657 64.09074666203216 36.867750633672635 116.52753849048628 69.58664515169266 54.29181379515665 -82.88178248643524 54.05224690658505 112.777547445775 25.539047142839262 90.44482713830209 107.62846043834294 -14.041087877501564 84.5265725056596 1.1186470449290464 65.10464941418101 19.878894407345992 180.88100434303934 87.57488427208426 -62.59870795046107 -85.8512694014086 -15.750920238876295 40.90880871339131 -1.6323321203538086 115.47469644989881 -22.71669961856707 69.54068053342726 -2.6840623786348434 40.77585515978365 78.03182017302991 66.6686001003368 -0.7861617183382978 50.65514360459512 -1.2856824586969575 34.218905459485065 -6.934306399733847 58.88896145016891 -5.641703022506461 25.616195436081153 22.469811220461093 32.24673666633937 52.689400049190255 14.499966419343133 90.95572575992631 10.565955590342279 -16.66593281709645 62.23513192519286 -18.532539788715777 -19.893815656412354 -22.19332733446921 97.97430967677387 63.38308551502566 0.8477392422826583 -0.267003195198623 36.79685941552644 51.67902453351044 115.6207679897105 6.898759402641508 42.46168179722724 17.788864846179077 68.84157682540938 7.814725532425855 20.337700290280694 88.9478288352088 3.4369956259490695 -68.65742092089836 131.1098906139655 28.177660312065743 -5.64485246145518 9.60073390404478 121.57854476630679 26.745126318175803 13.092163467801992 -45.404675523413815 64.28610783063961 -0.1837969925095899 93.18121980300248 22.261646083842436 55.46958392106846 -4.361787674639409 -20.451354526423838 57.94432925034845 56.80414057987181 4.776935221162362 60.693389401920925 18.297976991343244 -1.6704606101751855 -18.311960365707165 30.564737480596857 51.320240033353556 28.108138420968313 101.1424197970733 32.942581600453394 -52.70916732821822 -3.8221127539697157 -37.649075108502274 107.05427262475062 -60.742197929528906 10.410699863091418 12.758738561857795 15.366758989273853 -13.67708073935326 -4.273619743007501 -17.59625656722121 -3.1391654558747355 -24.88824758024287 18.70010685175748 63.51342771311811 23.958277807243352 -2.4022517329996536 53.44353566751461 -11.570810609505257 -11.723302906599356 15.774236026742813 63.81873982432693 19.220986658426813 14.077940467757543 -35.961356258103976 25.5142188236661 -1.8475730199064573 -16.984876786200573 33.07082314283781 21.876217785778614 -18.440483400340657 40.97750751349106 2.0602865381661766 -1.8369680590781958 -15.760624534151448 -55.54511376223345 -3.205379632920174 -12.139442562310709 7.016929292459621 2.066717724511467 11.741964724314622 -1.298413657324847 -23.02091100484248 11.170429281514203 -3.3018868262681225 -4.31569832351974 8.345896552517278 12.460150499822777 -9.735603619557256 7.390837335945899 16.180664535166667 -7.568813715622626 4.356942598869122 -20.77562771758295 4.285367628403127 37.62662665024715 -5.398424306759474 24.16954642822254 3.2220687953362295 23.71592087905774 -21.357755435043668 22.169310496960968 1.085782899550411 19.9039834330616 24.271540275840845 10.200347664507404 5.073730091151728 13.382324553099641 -18.152121877400948 -5.154231409501827 9.992432405097485 -8.649489912607692 23.45840540787808 11.07763939963423 23.95217014407281 -21.002144480956826 0.9571814777979175 17.621419066516857 -6.242084955031699 6.030504195905874 12.148801900018842 -32.73688267419075 4.288423901064272 -24.5521336693665 -5.66091712098268 -3.677475966700953 17.11560728105151 -18.09332692899308 9.815044367161445 
-183.6451059871671 22.05881790689706 323.77790623451074 -168.22020868157787 104.07785968704945 52.472960368464356 -100.18335451347666 -324.97858027362446 -157.48750904686938 55.62593328928452 25.311823193884337 140.32316716926988 108.83651560855388 -173.99500166450048 -82.8781040158443 95.4820392354254 -89.58388503555781 -96.11948390903324 58.6830130654125 111.96732914944931 -147.32174232203272 140.82620561208347 211.5402528441287 -20.835703884753162 1.9862005615371183 -2.4632951616148793 -190.65462950816067 44.08837268617255 64.30151273147973 20.96406428132715 317.63366954594943 -51.422543236514926 40.95074111620696 78.85455546849737 -43.84285928185514 -24.175244526633012 -23.57733007664335 90.86085356055322 60.97251547959492 70.46293652946976 87.64797201812537 -70.78746343009573 13.549130420239525 -42.966763023780786 -79.80396534176825 60.223493721423125 -71.72891211457042 62.17466949624088 -47.97700364419958 -204.66030675737764 -25.375027478761083 6.623026174532315 280.2823221632574 118.2231578734479 45.526910072848715 -131.69177082669125 -223.06785135220127 65.6618999546257 19.648765320605904 -40.22642067134062 -109.19220962885906 -8.817129279658237 -86.65630746557906 -148.548163649932 163.51297891355452 210.11194481359192 -133.34389369879378 -33.20681043957914 -126.55789947945628 -186.16562290843225 57.181493948178726 -80.25734334717168 -30.73153098408747 15.201593362832703 136.19167846175222 -24.829422017410046 163.88425857984615 15.67240503320115 -291.242581904521 53.49212344604733 180.0856579657693 41.68651098756199 -355.8607481493011 -16.04110363956567 -258.13305274848733 -243.22398228225956 74.83659378993158 -16.857035424593168 -289.62781629513586 -105.20068368904244 -32.98698545596086 92.64234979170486 128.27230793694312 23.776004472296606 56.400461344910006 225.1671598319546 33.85921345975011 283.584833187123 55.57048879407015 130.5003603003408 21.528621499464624 -54.10985134639177 81.3272551674487 -135.14696376513697 9.15874645849453 -85.65423814993375 -229.3359889896313 40.78521656317899 -167.74710236004043 -90.82732725957723 10.253816000803226 -20.85932086346225 248.45882662330146 -61.307462057447125 -132.3914003755749 21.904707826684664 63.52217343564027 173.21020305640602 -10.826838039239124 -143.069990971561 20.651650243338732 8.232266447312997 42.3612532662795 -88.17212062836717 -169.8834262715061 -3.9722889759766145 79.6251179347818 -17.82023053615921 -66.51056332928088 -264.52592327775506 -182.19083858573393 -113.86338735725676 118.5956275919864 71.74482469742442 -260.35798727688956 87.75585797109285 145.81179446366514 -77.5267373141346 -104.9634718379379 -14.692466962444207 -227.95041340494092 -160.28739942791842 -24.587237672778933 -159.81469433314066 -140.6525676279138 -201.3179847509139 -85.68300047820613 -19.621701279725503 -269.31994819738844 -295.41743067580506 -150.96562263815798 -1.6752264495475089 24.178272790750466 5.47642605085463 -265.92398811842935 -49.63937830209313 -35.68780939348401 82.4654798790365 121.12084277866414 -292.1779485067409 385.00631889690044 -54.47326671954967 -83.7631642455518 91.81574880935486 202.82425677841928 -86.19437769039891 -75.19275583764995 67.1715324574848 -33.306651938226054 275.116881134127 -2.323722408320774 -121.24214316418303 -31.690465259461206 -46.40191365583049 -129.09969398576823 170.2990107475781 -58.79220408965215 -88.30572834079952 -27.075455753143117 -2.817300997024362 -34.05630080496999 -131.26238907252204 10.565610271942555 -159.6551450724108 51.47393856480953 93.54584301180601 -14.794873933535143 -20.05606311351934 -197.66473246763906 20.219103064967427 -190.315552841074 -9.537528754765813 -109.98199721735904 -4.340370159489716 46.40014199682001 -165.2121821881487 -1.5716260517160272 106.69512406493496 7.64144429894212 23.53375376275545 -109.52743497179468 93.18694308282372 -114.2619452885475 -156.46368593512688 -7.306813373684074 12.330291285091503 -42.82061375791352 -41.545788224353494 -67.23862335908082 107.33337177571488 -82.25207874225084 -121.73464549280797 58.9111202722969 -28.067226325976577 -74.22570641299822 -78.02737722583912 97.92848083990525 13.11061091827571 -157.0275159690296 -62.478116085784265 143.94843478912927 -193.3952774166165 84.03701767520356 -15.031670188687023 22.06401793975536 -15.112323511404448 -63.80229086751663 35.18294064417041 -229.5999113445579 19.383397531970036 -31.348569798958813 23.835234816750326 -126.27657016429339 14.561409648835973 39.25654747459308 0.9389873949827168 -6.6266682278005415 -135.19029001694508 59.23239068360069 6.962087727965907 -284.1455562315215 -6.484771497710625 82.94730920680772 -15.762380762042941 -63.68478982216853 -157.61817193446373 -74.2171477351647 -29.291585498001538 56.645604247741836 21.04225124562279 23.157111099564165 -125.43202953085583 -369.5946934116768 -14.414645154139176 73.65873290894 32.06445575588112 -7.687249204547665 22.956612659629528 -97.72326043249724 -8.54197774453825 -97.95515357540042 22.275655129963983 13.003687234680969 -124.72552964866817 8.178314942395454 -14.73077331196597 -23.073262893578526 12.492896459135334 -64.03495994794388 23.138842375374036 4.621080697051047 4.998681354601597 -29.420721610645547 101.99811830155873 -107.300823205449 -32.59756425735545 17.993486161184972 10.654533451616976 -167.04859800165852 17.996493740540103 -70.98336401586205 9.007314316217146 -11.980855166893685 14.045910738656664 -37.660263954449476 -77.94806528925061 34.480499434169914 6.200149623300236 -40.4949330623176 -55.40583968642384 -152.85515819792587 -2.6981329692726477 41.814761947293235 14.17867267962676 -51.27880069454649 -17.063895193908078 -53.09291116878464 -88.03238893817563 -43.36926010883634 -68.96060222315002 -14.44024481774224 -17.705894810278863 7.494201988416559 10.481566440557224 -57.45501182690542 -24.18804928479023 -10.47676626551394 18.64978612406076 -24.805199907144367 -93.7874776389359 -250.65065514939462 7.422673402475795 -25.453220112771263 -10.125060515860202 39.7407809765162 -50.5083209076823 -185.90685587221557 -11.730102733708645 -9.74992112563253 24.1569827857905 13.263175802103127 3.143020815892829 -33.54907317721365 -1.3094737161139425 23.07160873898264 -6.183582250221707 -23.17409057184709 1.5295143984231645 -10.705870990330835 -84.41806826675524 -46.77469084685973 -27.214611265197636 7.649542021660789 -3.1313174610274186 -12.825130806624445 18.170873140928403 13.799165495843678 -28.026304801919586 6.605495691929495 -9.14100147306879 23.54787605575042 -147.9706758774799 -33.34404569746959 -8.526825290660208 -61.75820250041623 -5.482113086665225 -5.380888154426199 -4.386183117380951 -20.60544254000167 1.931871951092033 9.317627619130391 59.23968032374099 24.54516678397029 0.889092262387799 0.6495837397689773 -70.28479328752381 -59.06523387172521 -16.629931494186085 -5.077520555391977 14.621911053564117 8.541526014139865 10.906699589740297 17.519252610586065 2.6502654484330628 6.014865992334429 10.1734741447151 20.702671715147527 -18.1692715352124 5.981356906704783 5.224036721871733 47.78218797853627 12.436076430583059 4.320717760296663 2.954081367912228 12.62848850675422 -2.4627486484789305 6.381548801477717 7.507740629357167 -5.899448061273144 -23.380172726883707 -21.059698397344786 -3.5763358883407745 -6.36841280386079 -0.30947885281396526 -4.809765962202365 22.55210727433905 22.410565453446 -18.84554659017807 -16.095069330130695 -24.81085339789522 
244.9224401214133 -118.13315326246583 -217.06350725388225 15.78194237069623 -1.3755970748309165 -195.0023520048941 -16.846875421005393 268.58376635948554 163.78985244663318 -42.02640085144099 -12.267018052932862 19.82897749887809 29.468311049175785 -163.67231976244432 135.74337370791702 300.647020187237 195.38559488368094 160.14236386776176 -288.1944406761964 -53.17408754300772 19.555511339991625 64.26554313994768 5.584696190946941 16.71591695303369 -11.426631363551833 12.437003109462948 -193.13674463844305 32.701675116780564 42.44718786682467 0.8131730252008137 -9.324715520022732 90.68727262106125 -140.62915164078134 145.40775434343692 85.08518654991762 -18.928740938185435 -28.057176276870837 152.7141665487182 -30.887592033398626 99.69553015233761 -41.41615417925178 132.1749803778272 -60.52019304355307 -19.170851140126608 71.47861757539194 131.27519536163 -222.2191875874268 95.59138093564022 145.31378462879638 -67.58810449949551 -24.54177408304311 47.22836884564138 34.914783209981 9.291527511440222 -126.41744558174784 -70.24308239543112 131.19287561066162 78.21499282765227 78.16670826524016 45.03365495329745 -203.69807506144647 13.641811428466259 116.79314909307348 192.69996493264895 -250.54562891403688 45.869693387125444 238.35119876319783 38.03004287127211 123.75411695159976 -60.63256204342693 133.16919612897405 -273.62893197024215 6.744823369834284 -36.847441236526286 -53.52873485519441 64.45824856724428 81.91023729639213 21.99401983419836 114.62019322932731 73.36890381322203 -123.6217383439947 91.31213423268804 134.47286684269758 115.28575818084674 255.57112517524814 271.7923099332105 -95.40957167515089 -58.02926203125214 110.04749772618851 35.86454200485277 104.78803868312342 -58.10104062577233 19.49702311402093 50.814834040330446 33.127844986955665 -223.34162072187002 105.5277082656843 -78.70656759008489 -163.27529411908904 -309.80930682583767 -129.10403031658188 -67.48785128347991 -11.042943565192795 -27.656003162554565 -83.99935647544878 16.739177602884123 46.38099505638059 -6.258475355554648 -124.5587079486911 200.7972820268327 -30.646622220644083 180.04015639699125 -37.68388386433764 -107.98082361654677 181.67813829295307 -390.158551045552 160.7842055624968 -330.5383956473674 -44.5442519474898 107.02827389908603 -126.79631530400302 -161.39527279017494 -64.43819799474275 100.58406435169462 187.2380371446685 -45.933289271489265 27.486772587543243 2.7925748502036574 -11.168837758619437 -154.87177363729307 -221.6497119612094 -274.43870686797925 201.59488482556765 -173.1622692669358 -56.937725299513545 -56.0155329441997 37.76055519384561 -122.82291833079097 -100.51770757150719 -17.27437255903777 -162.04628990234323 45.70935242402894 -13.880485207457912 10.512778447047635 -73.89898586890698 137.99076764460926 -39.015378864431796 -193.60364301460794 -90.30623404602737 11.373108616597067 -171.9379679587873 9.644763962868426 7.7674734269492305 -31.472287964189576 -213.89690855691876 -307.5672146902156 118.22048635729911 -22.746861226986514 -60.42740635263229 29.737391465493516 174.86067855922036 -28.274428775186966 258.4433330716149 100.48252430866954 171.20421491746637 -48.75513538174967 -72.54092874571869 5.3322058124548795 21.456383430356436 -196.66461691590692 -164.2638385718698 215.96157058771956 1.1329285113606122 155.37816870667572 -119.21771779094615 -147.1519425438523 -104.22157262641932 -130.3580841285497 -5.4099680352709685 -11.004824596720203 -55.03025460941448 -14.456109613903635 -109.95876830261129 -137.1251512997412 -31.901163312275962 -194.68321136938738 -9.489420927298209 -3.5278032157610837 117.80334090784689 -150.03992178499976 -124.71847573749368 38.50617456469894 -35.662099387105684 -167.5953085027404 -35.60419470531419 29.20855751668879 75.9709725956211 49.7752059377935 -21.94496890533967 32.25242319478954 -25.49091921036513 367.24250951330635 126.97862463519722 -143.35658161218836 -72.14119300171339 -9.140168749120608 101.27405312867859 -6.752685768946589 2.1572990443563596 42.02722349925123 118.63914877519501 32.78736067906721 204.50886220170523 -56.37923513681061 -143.723271845362 58.06598618122039 -78.04761631530224 -22.78591997859358 -37.259025962764454 185.04620385254248 -42.95512524261434 158.08009022868487 14.671253489048413 -30.41465347234577 3.2498052459472526 70.623925393444 -33.00461437882988 168.8942552102847 -36.46811602040625 -1.6618744744097673 -13.696345858233345 0.5251506458042072 -62.331022929996585 -88.65980516562338 -4.206452787818078 11.047529235151332 76.57312572726356 20.96150981040899 26.624241618916255 -50.28238581228372 -115.42208574138012 29.971697838153023 -29.816769932375216 1.560298064721404 -12.196286396281096 -265.0899269687702 -26.67919729454048 -44.42226803052489 -31.760709097594553 -3.740567058574788 -21.90220265390727 38.52905759934742 -176.35295911186935 128.65472727766715 19.166006172808668 -24.55513764060776 13.707604477873874 7.158228606102187 86.12303542112632 -100.15531720766927 20.20196286797002 -7.255241454594452 -27.304361067291275 -37.15771567868215 -13.453898176739798 18.266473514960108 -114.92139103637767 -26.383712311541892 -19.574215562473377 -1.6844425670575787 -10.353591911184099 -68.91604127506263 -13.612354571800235 -76.45370476833239 36.67478395461364 5.935374066939182 9.014396666006432 -50.64071770044071 -54.31950990013579 -2.1962222346366116 48.663992057441625 -9.647494889886225 -7.97994072536306 21.005167840256032 -21.587227751234746 -72.56891549954538 -78.62881176166219 20.452345410679918 83.17182944338288 -85.45081658441178 -165.54388486010112 19.779853963808097 -39.30601139495386 4.3489624080402765 -106.45984487016261 -1.2660499349863616 -69.60854116526252 -2.380115577969439 12.287225062023394 19.98656336707106 -34.176626848961355 -13.29136158811979 18.898273212131418 76.75068406055571 -73.18869518871189 -90.63260595873966 -40.54048534482549 -13.480762297936241 17.54775576293487 5.917476443392488 54.76411398601414 -45.85959094337656 -32.312053524576044 -4.967286208914792 34.455960858131355 -16.62333023548942 -137.0776541704129 -0.5544487321230505 -116.73159720039754 -8.928590207820632 10.997953060279901 21.00625480198011 7.5664253666912735 -53.44995531506736 -17.904520336648527 31.40818042427142 -50.7229438080762 -0.6961902074795597 -18.626240209428246 -64.65169156915195 -71.81408731571081 -80.59000473745455 1.547383057952323 -16.034184251554453 -24.390760026166124 8.60464781008956 10.97898411666603 -5.33712861422262 5.8166739361879385 -16.716247181345306 17.148281353634108 -101.33492019889682 -71.17832425681948 1.6399228626814402 -12.963073669921156 22.116980832673022 -15.231855441457023 3.4583433076602335 -0.6998043123945604 -34.03251592912201 19.062269213917467 -67.91252783017491 22.021311937609138 -7.347719030801545 -1.8002032417524672 -20.57979818847183 -79.97575899634936 9.534563466435708 11.3500502719979 12.296817091809888 -22.262006094641748 -24.91355772847166 -50.295763250369376 12.886952321193165 19.029924720524846 2.5393957306895123 10.44939277696074 5.707063521257833 -22.506641903737044 17.755698813122606 -4.28747615881511 10.52207052202522 -7.166870599462746 -5.597807576460547 17.624224727987933 10.596792632403842 16.077290946869525 -24.226110281762413 -0.16724022260520371 -9.408174219182921 4.469937423770738 7.270451556438297 2.9066292708802663 -12.382612143431636 -11.590978863290923 -3.6260826534023676 -24.113711530830223 -15.867166560607771 -9.44968938046344 13.588881999941151 
-58.97616174124636 120.19138804947904 -356.3149421341888 -6.4931684616922665 -268.6621695155699 -18.351743650710517 -39.25931377124799 152.37464220612912 -142.50835423549447 118.73281295883532 -5.3599566304541595 142.40516960050738 105.06942793367818 -58.618292155319466 -165.14573302761548 -0.04626623374971975 17.69461603204277 -9.838506681670104 22.210532699260146 -71.55616737904587 114.93693193402544 -1.291658845469497 172.58655849220642 21.94153768866012 -6.602491991557374 -20.906617599681592 -66.85513252904386 21.052279871788937 -115.61035503351901 -71.97305676543733 -156.836678944807 -23.56499824058155 -109.19797214550016 42.268039939209125 -82.18801412269318 75.98592207435694 44.01071521014107 225.00202123473886 124.11427860607458 -46.89296058000304 -307.13613608546984 143.97667051934914 -76.31295174576208 58.58577569137897 -62.19711287378532 -104.91035113753898 419.31518911807785 -30.075226842011958 -76.21168066165747 -58.67862840172785 -6.241298560806716 -14.94375198696089 69.66853595370932 49.21683969651142 -198.7962000680442 -18.95170671402706 179.96037724697865 120.16770333218766 -31.959682966907057 -149.50859410763098 -33.36755335258007 -38.20113773608412 -7.4092958907062165 53.47502994202229 142.49392346494022 78.2121471783409 288.4205022387224 -49.883223425386376 -122.3517280176384 -30.705170512940462 8.083779121253139 -45.50375732425369 -193.77853366558466 -73.62318337323912 13.493950213294474 27.296850310053724 -104.2608278331535 106.05995531512013 -164.80149560676566 41.98847208568022 -82.8485778017579 -43.87049239413988 -82.29057288855921 65.1148788063887 70.57288856178045 -65.37027454318357 165.37384879200297 82.34050261388644 200.02971951437175 -52.11650972116718 -112.23534738533526 -4.606148615650633 28.735212268670722 141.13135870465788 -33.69910351923994 -9.66991424558249 104.72494809490651 136.42425134594941 239.34824360769716 -88.37795944865755 -58.55366876592217 -17.120083609276527 -71.87722932338816 33.56531138944685 50.586827854525275 -86.31054121156292 96.1404259097205 5.05757582315333 316.7857506524003 143.2437015880361 -137.07904164297068 187.1298123067219 -8.038084961226785 71.7953989290427 61.14150760956099 184.41376606090864 140.8170634441062 -98.43480751018583 39.68475488508134 129.13341327632452 57.651438507044666 151.0406534710322 313.9377765123223 -16.277666958881728 351.01653745437056 3.390007480778631 119.72146192100763 -6.094909223484709 -107.34966112517563 -62.29797133670344 96.2119241323082 128.5572098721745 133.4629142551062 26.238583302536355 237.35950852408925 303.2697881408112 265.7838570327795 293.8697131415221 191.1379490875817 20.540101698718765 277.9222600815015 -28.612121295669905 -25.784851951353367 96.85688531781908 63.85335480155733 28.040177821569902 138.78594673165543 226.08733770669508 64.86738224799859 28.695662352996866 326.0387591858231 251.9256268443864 210.66465894964847 4.796959493981837 251.64739892943606 28.46997389905211 23.355227344387124 -21.361516993720514 80.52126060299115 -0.11781102799203365 -1.9531484848472955 15.919293699488428 261.9139765161365 311.86460410325907 130.8550148936625 7.0086997539041445 52.30418017333933 -133.02233116667293 -61.75973537415888 23.92395813150344 98.60178116816414 55.56874886514844 6.316903239863853 -184.17272870274599 112.90634370405742 -174.84758642307915 86.84303817454509 -34.25304958129059 16.942848733498266 0.38437233364402607 105.07468943429323 -8.01529406065314 -125.85722997538562 -56.310154916630566 73.28947065801823 178.33732222848576 -42.89808923894519 59.51271846596909 64.2347278693441 80.30505555379614 -165.38658354950593 -21.46271314592192 64.48996573393389 -18.917570628375056 -20.872774984113942 51.83192210108646 7.163297758984318 -125.32167703837143 29.10377221362505 51.546164135945496 253.71848819250354 65.98072682539278 16.047119915633637 -117.09632516652898 24.743496729609998 -22.081407399975685 211.33805537688914 140.0523151505553 -123.32431615775813 7.386788754876907 -170.44444781711374 29.407957541406613 -124.84971847945535 62.382935356111666 130.50109589210476 -35.39463075625296 -81.09297239145535 17.851918217741353 77.7099149901093 53.91733683013391 62.363401962807075 136.29960645083497 39.44093497268257 33.1153915890448 -5.460100593841423 -37.31572030813322 304.3721659838117 -34.34026062479227 -68.36991948855234 36.65417451732459 37.88034479891887 -51.63161480022164 -41.373917496886584 38.35669915182703 56.64240120790106 22.957735334159903 59.51704169858317 42.889799984098374 74.19311499128311 17.48086128469133 117.71476188865797 37.79028597497187 25.56955663738619 -11.184056172707535 11.48815042662138 130.64528874112415 -68.01661091183443 -63.889498397705175 -65.0755679070512 56.63539500876667 -6.060330985968794 57.98364605682754 53.25418302402245 -43.978702140461856 -4.048096645832678 -194.1619271617992 12.603823157413501 2.418377039377862 -58.99865714617585 40.58029527013828 169.70271955700275 13.452685168317807 12.864772913675939 15.096419047848773 -110.97231643869655 17.58794055418306 132.3259382093866 25.568921928679682 132.7189088062368 -14.843754369060248 16.23622241096185 8.228186286900966 9.787134790888874 -74.45669283269548 -34.03986183634252 23.91160327257587 -22.47089558357398 187.18499445900542 72.44149898411388 4.719645735457916 2.7270339983926073 -21.132866380117676 14.740250417400114 56.93433619907312 41.984936462478174 18.175098859002333 21.489343775146843 22.694737820527113 19.718794431326874 24.4220865905824 -74.66789315866934 1.1551633779778427 75.49660443864262 13.490338473011178 32.991082744349036 19.713526641752587 53.16361422014972 51.88972734781648 18.47965347025644 -81.14413675236946 58.78000783355441 24.81189152893599 -8.436860482029951 148.7821620304877 103.36227952785583 97.54480382254269 45.51907394548384 -8.972838264988242 19.853949892278283 5.380117290877919 168.6386325951258 10.141622321148695 1.229784140573966 7.356858430317308 -16.710171164706697 20.762682777434385 24.698453362580064 -3.125822093915198 92.28941719940208 7.146546249858734 8.267112849960457 -22.303952860899486 44.905146192855135 27.46203057492891 -10.566879884729989 -8.507865554553481 6.685583206287178 24.698518298134815 -6.545429499859543 28.954371548273144 133.70830351629624 0.9401219209680011 22.78466334579715 13.795133716405148 -21.147336298796134 -2.055585461202498 45.34542772801164 77.14278440940784 28.625731629746284 -1.7710909236988528 -26.386546332836204 45.94123673615853 88.91519337956201 -21.784867681522442 22.887802580938484 -3.9981151992145554 9.77572586886679 -13.724677506908966 -9.05595565253118 25.700746553862068 1.8347107449886209 -14.137188107296973 9.715874890728724 7.495443574805026 4.384449985808895 -25.45447573178617 33.810428349123995 11.923442459948816 -21.979733398965806 -11.239265595887527 13.88179666022656 -12.657567846038198 -4.209536564324528 -7.002371034552645 2.503087332842506 -8.179928616378335 -5.299107209465037 15.190872726890435 -3.8414386555414795 9.55920836714946 -23.181860565136702 -5.705242486037076 14.833603244982234 15.080565783420226 -2.953804627459586 -7.480129299658957 5.3863990960772385 -14.233407437584068 -10.948374629553886 13.059730269010613 24.336227867606933 19.95889673004071 -1.2276474679579235 14.429463701289984 19.367246153730832 22.416624755915798 9.749218222164137 15.666971425318234 -8.828130432668049 -15.99911087089053 
