7.512338402179176 -6.812822438797918 1.7158575743956936 8.747566990844183 -1.9114363582133993 7.288849358787774 0.1813717535432664 0.29266057028819314 9.753837268964263 10.351599564486616 -3.167290292594925 7.7303230977817465 13.067833439866313 11.319778577559532 11.371688690758486 6.538536532906831 -4.305094221412849 -4.392734728542856 -12.105548734957873 9.800059003985286 -3.888051188645265 11.804791800285285 -7.168073258118202 0.9971031764115861 -11.115363525438813 -0.3229115642978427 2.569581646568728 9.320782094296238 -0.06771603240159917 1.5407651340524267 -4.843166170961262 6.058442509493582 3.440778312929011 -4.132271607125105 -0.7206638618720718 0.1393964859898992 2.5430595380052163 4.980815006979069 -4.65705823640499 7.887811285407468 12.832293854727718 -2.1798271594070573 3.5958273024436505 -2.585497520494779 5.553741125926154 9.954053204862637 -2.015880757671727 5.381186601649271 -1.1297181069524262 4.148895319441151 2.4804261541671555 0.7437221908685527 -2.6136489191032606 -2.116172841399307 5.103803377236556 1.7240274045488315 -0.1735770128994728 5.710654811615989 8.864016543947617 -2.7679312972271664 14.625677260667796 -3.0948643667852065 2.9814514480770424 -1.5307661843403784 -10.852497713973962 7.841446409369806 10.698464876771979 14.357361923083474 -0.9006216755831944 -0.1467859817174723 2.9217389728364713 2.988548893021819 5.278965597039983 -10.825055119491022 4.413104735838932 -0.8900290695873445 5.643691829215365 -2.5049885280705717 -0.9037541238618735 -2.0635547938147156 3.0421931896657783 -4.535936406786489 9.31933481335102 -4.167516562318736 -2.7181417264216927 -0.9523168100231862 5.653680586869923 -2.8706136104973408 6.408460046987005 11.711084602466697 -3.9190132005833247 7.774678830824617 -7.03258924536181 1.818223411278027 8.714117428576683 -1.581162709095801 2.258843683665408 1.6327800981935188 5.126358737584964 5.956160350751122 4.233220858973684 -0.24957259663884646 -2.3440028049793704 2.8820045309222615 12.293452236307585 -3.283890141942861 -0.5450037055090414 1.751495201522812 7.111835289113509 5.237866894735608 6.672648502483621 -0.4601313567851803 10.448644836935589 -1.6424239646906253 11.52108082946597 8.683999202086808 7.42557051196308 7.4681326272724435 -19.016281224653916 5.5366709934229785 -2.3331066161762286 -5.547450105675706 5.801144711172653 -15.755139946719734 -8.390142679356316 -4.887609360554898 -9.182877632071474 -1.8492999481873795 -9.112661267254785 0.44651626101409825 -19.952395138746912 -5.5393760771563825 5.943778660649456 -5.764452604865499 0.639687170420063 -8.053869857856025 5.37590237453796 9.99882039454174 3.362161115216326 -0.6359986051507568 -1.3455422638835763 -13.172946328744572 -2.322521304239618 5.447181875368122 2.133236578376102 -9.22359129256611 -3.306483744882989 -1.539552247622456 -3.003772113336074 1.6511595897355542 8.403041656697562 -8.756703078353178 -3.9237528891446063 -0.07815034102000369 8.136107925859967 -1.7989156624613944 -3.683284495894212 -1.6644621098499601 6.997045356077754 -1.5490798288842813 17.76676069428548 -2.716600048116681 -11.550561475779983 -2.320294393742253 -1.423374386815006 -1.8296500704063408 -5.333592683632108 -6.770983587402769 3.710535348430985 0.6141254326507136 3.7226259756879774 -6.636229567875296 -3.8029969882698316 -3.019937671588398 1.7174864678387953 -2.9147325544284493 -12.781225910278225 -4.961657034237554 -2.5421272735096037 0.8160860937066731 -14.825764701789607 -3.881633378132577 -5.071052797823675 7.772135205373271 -3.1388016997775976 -3.1937143313679743 -0.7580199346327041 -6.383958345454979 -0.4978921256855534 2.6442331185633474 -2.3336614570420267 0.7021598073307056 -5.292539035057502 -0.3006550307844326 -1.9101797115577395 -1.095794559725 -4.8496164525501015 -0.044158201107779425 -1.1465542103874407 -4.171117139845995 -2.18186644585483 -5.698583392591022 -0.98366384921973 -3.59144405478299 -0.9197436340872315 -1.189778228786357 0.8200539069401314 -3.977041795590695 -6.728339627074327 4.500441287485274 4.82311283592573 -16.652124038631896 -4.227163887440983 -0.7786104990631768 1.4563128938641627 -2.4756425800441044 -9.900642382647149 -2.568948783853526 -2.314545253465149 -4.514711988229005 -2.2637273777256444 -9.435312023918168 -4.728190799016558 -4.076818183229585 -0.6786537328734915 1.61651844734144 -1.8156797268646014 -2.073167189643536 4.863136622375468 1.7365558202405427 -5.1094898540415175 -0.14113232466823547 -4.722980113151598 -0.213973898056915 -12.346443836610248 1.2644842790412345 6.514533528065103 1.2190118083298966 -12.620818463988922 -1.1952515329467934 -1.2950221089578366 1.4939525694277742 -11.11496861980732 -1.773671065618367 -1.951941160433898 5.29517927740367 -5.374344774716422 -6.021196534082251 6.291467040564548 -0.9085386681155971 0.6568095809770176 -8.78856466396129 -8.140317455161215 -3.8397279848586403 2.019007274837602 3.1559679557024327 -1.3404871670506613 -0.0213585862657055 -2.657269740357443 -1.4386730097013887 -3.5440900517586784 2.3442782274028957 4.189999215638678 -1.0915631819330325 -10.078842588222923 -0.7402403098279314 -4.630280178560533 -1.6804840017772817 -10.22532841156154 -0.37544561702114165 0.63658881785611 -9.678716564674676 -4.201146229286898 0.04154806540524378 -3.8344391617506415 -2.4689276065783425 -0.595056812995664 -5.827782238867334 -14.459991970070359 -3.5210215749279157 0.5048465892362836 0.282259530394237 -0.5877233184921931 -0.9223480365471761 -8.961343142110001 0.12790069242986735 -2.970114217770175 0.23695854521912627 -1.5336560930170728 -2.655008915939711 -0.059106676975601936 -1.2537314523314649 -6.333535801331026 -2.5402436736018124 0.7740837689601893 0.76637548463754 0.08972463935196145 -1.0646940693006455 -0.7107849018965047 -6.817133912594369 -0.5307460586578842 -0.4767038956323252 -0.6198899606243455 -1.3185114173010979 -7.1290817804132365 -2.1678796140579064 -0.9295101810547312 -2.475182263890126 0.9818072824931197 -0.2907270089120944 -4.976441624136978 -2.1254064423757284 -0.41355083060901787 0.3980502815958565 1.5350758105415474 3.2236738512050973 -2.962163969212678 -0.78196100989016 -2.1801237448774637 0.4867486124256245 0.3142584054108683 -0.8406419570760767 -0.7682996179774926 -2.443559931148409 0.6196462066101696 -5.499781144110196 -0.7360234610309788 0.2781104222037997 0.436475449707359 -2.2387378726810767 -4.694360341238951 -0.13484947860005259 -0.0821830470995557 0.4177011371987056 -0.9362331892801765 -0.4606415098352055 -0.4406356448684918 -0.460217021495913 -0.0804981635862295 -0.4316581431826776 0.7005228677638741 -2.3767096471681444 0.74742167801045 -0.45314039757452246 0.5490756003870125 -0.32096028083469735 -0.10584318018785792 -0.6312592457981951 0.012108038547793978 -0.8417396033934973 0.49289368037604775 -2.0137793805655564 -0.616486408618153 -0.14832386711297701 -0.7154590522549482 -0.7654695756543988 -4.662953215001355 -0.19354953297498478 -0.5276435057167118 0.22638193925377043 -0.9124784711747433 0.43523881454714575 -0.753993177889817 0.9245622558609494 0.36438905190897936 0.4561046138453406 0.5442805686036759 -0.3813332533396635 -0.25689250513620693 -0.3994026447176444 0.4665048193868218 0.36698486271777225 -0.18814319721444395 -0.8686162810780103 -0.8708875640195229 -0.4332761224299346 -0.5399641826004732 -0.6819590248475815 0.9100342513897569 -0.501962082693628 0.505166926491329 0.31713450409006966 0.9466187491211482 -0.5423851057423774 -0.8437970333542736 0.5193395232824346 0.7007475127934463 -0.28698474881940106 0.988995818098322 0.07409321149814811 
8.84247040048069 -12.700546222534895 6.6698776769460295 5.432508151425036 -6.475412861085809 -3.2702172206641915 -4.801311396710826 -5.92573510719639 -12.325378461452816 1.4358923932696024 1.837495669590495 1.7954922123524952 9.270594603348659 2.6078803202952865 8.032690740359442 -2.6243270728510173 0.7402078950066301 -7.468397860657745 -8.242206251542894 -0.9607502766764064 -8.223899627386192 6.100277585423774 -10.46737899708696 -0.8707993975441088 0.11206210727476987 4.144789563415533 -9.332360258137435 4.628286327714593 -3.9941255511228815 4.478729249298813 -1.2683142809748191 0.6680357269842927 1.660060613141441 8.091668978919262 -16.21760565003597 0.5970164923789084 0.600897807019462 -5.250091959092027 6.5124304097969565 -8.789297267610069 2.4151738055941374 -2.5859586661705816 -3.8995854204051117 1.091372783648444 -2.8470812430796957 -0.641994661366935 -0.6205758572363839 -0.4474413034063248 -6.334005798404278 3.8151093107145666 0.9578368378498562 0.9473660818063446 -19.68741567720347 -5.854919211114081 9.052470330726438 3.896142545480173 -1.424031993249968 5.107155006848688 -0.17314626112561127 2.6374844705306377 -15.018052907744043 -4.058263319151558 5.116557198043475 1.0491166467555904 -6.862620243419943 -3.6769798642493976 5.346935455045413 -6.793882039721302 -1.4654936355541779 -4.289357726460975 -2.5991663361401263 -1.4137194672245867 1.653636770233562 5.727602391907899 11.439725629246215 0.8275625086421997 -5.039440881334991 0.5004036035155485 -3.5688103600291656 -6.971072093421241 -2.87984510914164 4.5737395578832585 3.3140333123850505 1.4100151153474634 1.808323350723705 3.2438856742900377 7.316023046597388 1.281970614197799 -6.312367900430559 -4.964082067508285 -4.656373416827103 5.433784185294659 9.307006173479426 -8.343568587746653 -1.392899095924872 -1.6400634112211443 5.033696240192157 -4.681775248574324 -2.2501089975357367 -9.370218647882801 0.5697220942900153 -0.394092734561153 0.9155462771043436 2.8157022783390357 -3.377361540747024 7.758737558933255 5.487785258295519 -4.892654139125037 2.147511570644085 -2.7526112747557776 10.358416166077108 -0.763349392449263 4.721298193506868 1.8417876965792583 1.1929961864077254 -0.6694677833632304 11.622641689988543 1.7343723831842177 -8.888792372771064 5.4359383211341 5.728321004364084 5.7508563384557165 0.8498206705487767 -2.5816196129751443 2.350177265734661 5.536189430101249 3.558867458174466 0.9626102841747444 -1.4191887504244403 1.9288334098242597 6.826612357946366 -4.967895215934794 8.287353958509607 9.513278156510287 7.990481841673636 4.847944727677908 8.010115508295543 6.207519520364921 7.937128890024463 0.7684602537238953 2.486199280803969 -7.596095557087995 9.613378236154418 7.740259337018192 4.02330154352966 15.340312786382873 3.0757383482636134 -2.991211241691086 12.294937251220468 7.29925144720727 8.874736149644262 1.5065489181416616 -2.96550333457511 3.5494135999198937 3.4643320337757655 15.595317569730357 -2.7695433810409655 -3.8506360812942133 3.1384849889930537 -11.195514141107655 8.81656205081903 -4.969302821533278 12.534859151131055 -0.7629543394613217 -4.512606615242756 1.3082462944573487 7.061816409514501 -0.17268390421413912 -6.40472523005983 -10.518969731145276 8.518497807147023 5.161032003295988 1.8072761389265661 10.336539189413894 -3.741778790377131 19.68352450537002 -7.372192455034084 5.284805729863691 1.230460205362852 -1.3956306215121674 21.290035907353825 1.6223473125270158 0.6085680322314645 -7.687509881345215 -7.000435211531469 19.236784882523153 4.570396749310749 -6.848873041638043 -6.589439353243939 1.3439927970538814 -3.5338808893821487 0.9485521656547329 -2.7436450709789906 2.1063852989403733 4.610800430641588 19.599211439162232 -2.9976006746647226 4.089626883041188 1.5266685872757169 3.2855351677544293 -2.570150880718854 -3.209676207963933 0.96606586631665 1.044210565402923 -1.4016727536192584 5.093931520499377 7.9167655204762415 2.641137488785209 4.563143636467624 4.459495463905776 -9.473631005057841 -0.11672914352193997 -5.884251923154885 2.5208398969650774 2.5691170117619433 1.4561674444846948 6.694511985386578 0.9237797744371105 0.9035410045603912 -0.39259237019853727 -0.827816965646715 0.06793904904437224 -2.0044978179396566 -0.8170744875360264 -0.9237663981485013 2.229576273495076 3.5450010079838563 9.99663584664042 -6.722638871761959 5.4519326374768795 1.7459977104899975 -0.09890806950744428 6.341279868767623 0.5903205769231982 0.1305771933263344 -4.075420944294244 1.5065855042640561 1.0506351567278736 5.957364930935992 0.44040814797144523 2.9162552462092095 2.6158317457081885 -6.4907062708944965 1.2637150470385132 2.1807426826604526 0.9801306323730774 0.7840084751951993 6.265059447451624 2.95357274850881 -0.19999777474508845 -0.9468031800244116 3.7811670717218657 7.1917837328828735 -10.752611046500101 -3.2694144013222965 -1.3342313418675378 0.2970520337197699 0.5004901042431851 2.6270582606018293 -0.5243804219137844 10.424089861435602 -2.527264929364629 -1.787668057940157 2.555478786554918 4.90518691711751 0.6196281693134916 -0.9380292638502531 0.0994751262771805 3.2907162660019544 -0.7529505828840264 1.5952871664506196 -1.2405380799765937 1.3225670777768737 4.837299670283967 0.0010913717692572023 -0.4510214002661846 -0.4347033229643747 -0.26628896577916833 6.873544951542174 5.403755702178924 0.49235526063852786 -3.5164251801688895 0.7119224615547383 0.9603826389975625 8.743746991462261 -0.6910119827239514 0.7472107675946299 0.776204407044654 -0.8370962924683685 4.034493881705449 -3.464590052221653 0.7823619300394108 1.2664596616740305 1.1216560349084663 6.090349611182142 -0.47134232870745274 0.794947717131814 -0.35352090353827076 1.2953033300750179 -1.633396303073374 0.4721461973932534 1.6887618125288881 0.7631507043082264 2.2508762373217395 5.3425670348156045 7.25952234129855 -0.5124942501482919 -0.4251716364126636 0.7273685168485192 0.2707917738868095 4.142419033566496 -0.27916063201708763 -0.566211301771057 0.8329233371521343 -0.4428410308666874 3.4238860728012144 3.8035435308570875 0.40519082743312124 1.3121673219342596 -0.5070173800932822 -0.743872846254274 0.9891645498573757 0.46416397522456376 -0.9194282846576486 0.4617630324601995 0.5711608149081199 1.1300105644279437 -0.5984033059976559 0.20841393414414713 5.3766021793453245 1.265380813323274 4.065827392787402 -0.6385581833621359 -0.1564352101918907 -0.21896332211311084 -0.6293633926570779 2.3283129845917157 0.3322273019021977 0.08308539766790234 0.5499025931917955 -0.06965215555783391 1.6563059426013154 1.0555325949375547 -0.6421090261874925 0.7988113158467147 0.19440990424197588 0.04537066222198563 0.750037116478705 0.3984956251362792 0.8700911851942926 -0.45909982749114203 0.8284738831697259 0.36149217132558453 -0.8763865419083705 0.6094430468689666 1.5830501717110554 5.164710632286226 4.150620856576265 -0.968021351232207 -0.5960295652599331 0.5959229051712619 0.13207688483700686 -0.4661278181029827 0.651809601362544 -0.8587272940209894 -0.17927549907471987 0.3493590727374183 0.8641027489925523 -0.3343165391109427 -0.0986727494181565 0.6899152165754608 -0.4820299993778031 -0.30995766585525314 0.16560511966240762 -0.5788155580515595 -0.8341059246903078 -0.6505583839056892 -0.35537291339160987 -0.6932824610276198 0.5622803945988567 -0.2578762743765392 -0.3407897300790328 -0.5899901548402687 -0.6000788393249451 0.5087749152444464 -0.9204125239926301 -0.45129128110540706 -0.7316325760763317 -0.01736552619163263 -0.7128343961667234 
-1.4684805569836317 -5.516695902334441 -4.079553775737164 11.59334379804716 7.649196203620774 4.410269366768622 4.062117911649505 5.610953750109767 4.560296677019872 -0.8604179174454021 -1.1180411677769577 -9.888418488570405 0.27292910549830773 7.751526335994665 -0.498213180601352 -1.7463478001418624 3.179089707955356 4.550929314588768 -2.0193225754764828 -9.636996972198594 5.052954795803163 3.8632236557298865 5.350202042303344 -0.05115694816443433 2.9979207193889867 -0.06679119958349161 -5.395305254476402 4.582485908048563 -1.5508149254893968 5.105873330512907 -11.251357615808196 8.774881013009164 0.11356757327775222 -2.7629235794820466 -6.587876487478232 0.3698914436390623 -0.7718552403995487 -8.57445246259453 5.560310591591092 -0.687847054478846 15.975677778563439 4.488368923778297 5.639206144692341 -9.193690687689354 9.53089502251173 -14.279074796265938 5.512851822892486 11.56922450650327 10.423818882798924 11.041060977689519 -2.881941376146957 -0.7873241143985362 4.626673919032586 3.8603669778202705 17.53853282723689 2.9941650022881845 -5.006902267144371 -2.4106381966379558 7.722289490848939 0.12776735621069985 2.3763746156497234 3.959160564280098 -2.725332790768198 -9.423982408283626 -7.147616701065345 -7.389495157758661 17.828790160890318 -8.510777599372677 8.65061085180099 2.124424818024427 3.3439787110611796 -4.26970354956247 9.069878743904368 2.6934632659315016 -1.5432508586915863 0.355353641604871 -3.008010386670631 -0.26224515591383485 -8.824098946711405 1.2718758911089745 -6.057312448199261 13.012374729967865 -1.853657230657656 3.3809332927844595 14.513227063321985 -1.600151012136225 3.6807547840335557 0.4771190954512501 -4.075514289942345 12.132028557036751 7.680919381423409 0.8048947482309682 -4.546368202234705 1.9604551843251783 -0.2482021415754463 7.308147234592298 -6.503078246763 12.636754004089719 -13.589599730823581 -0.47213673113211463 -0.6407459350113774 -0.5945977441051602 -3.902203386919387 2.2382335711431263 3.1237414201145866 0.09383239849320474 5.963954064796094 -6.7188827442536905 12.944272779032753 3.859119452553915 -5.201890705000843 -3.0727167988158843 0.07732692139279157 -6.052899534244032 -3.4035836692416717 -23.751347940614565 -9.986296400258711 2.0335645980252717 2.233648902660251 -13.279961488859456 4.471585307924867 22.44364011452936 4.705717609885687 10.432604007014707 0.2236408572645327 -2.911103773607716 -2.0391222409114085 -2.077081270892238 -4.354117447846981 0.032166233327483654 6.10119871199079 -8.83013263695018 -21.296563331127203 11.682561230112466 -9.913947171773208 5.310337621120848 -9.261143684592417 2.597266173692178 -8.772033029353299 0.04969372251342056 7.670816552376158 -7.75544446166414 -2.65017729935648 -8.73257279887483 -8.320704813583204 -9.938207431971191 -10.215188705349275 -13.191479124062349 -0.4004803544304425 -2.851391772177887 -1.8490099636297175 15.546392278225822 3.484157378872287 -0.5595679006998879 -4.209748957311184 -9.025137330069336 3.5748511353941868 2.6900086613585077 -2.40953503360276 -4.1034049882928105 -1.8479409706889989 -1.1908288921805008 9.972518095900448 -9.496208026632235 -0.21331095602267455 0.747985252574768 -11.454835922388536 10.591817011088201 3.6226839846936754 -6.768156236329016 7.334811208727094 -5.8446954862357625 -5.253394459786387 6.917061354247152 -12.281275041465022 3.863904468939967 13.115387802137025 -3.1287510762613047 -1.2581643561812732 -1.8331650953222958 1.8966955237178036 -1.6449815444938147 -0.5170140226619646 1.6513416775621055 8.07166296493504 -4.042810740739857 -4.065290486769357 2.6849981548448922 -6.309710188347479 -5.166164208764253 -7.044559768188412 -0.6782364012256785 -0.5494757793540194 0.7711027997265179 -4.985642567169569 2.999448753452822 5.079740307103891 0.017196614970469426 0.4863405652733721 -3.1283868853877412 -12.201347926342914 -9.096491958408098 7.059752614914796 1.4220922283324575 -1.7759904936141209 -1.823427160994961 -3.2804873209276177 -3.39493304189162 3.8054495976695906 1.4583280747516043 6.501763413156761 -3.4817967095535254 -7.001432568855379 -0.04023074748955995 6.6977653123986896 -0.45546988301684066 7.091471972994518 0.23046867887023906 -0.9241607325063689 0.5443683720796487 -0.8895552681115005 -2.2359108547493665 -3.817012710937296 -1.4629574385349426 0.48695242030727987 -4.922198439764843 -4.619366549611709 3.965264077381078 -0.2739071340574447 4.475640629997717 -0.09395019633521419 -0.4698912255823437 -10.51203761427592 0.9037465732498017 1.0365020758853534 -3.3661309725004376 2.238320116721022 -3.5110642458066277 12.153351056923286 0.5393275754387624 -7.063820336840874 -1.013313582874027 -2.959303325352022 -0.02812585018203274 -1.4653712990230574 -1.7705966768074206 -1.5101901992217983 -1.7466876579203594 4.442916132746745 -0.1457143038381636 -0.6149254799809415 1.410182596848471 -5.8529566853386115 -0.9111211545471793 -0.21422736977127843 0.5073570908111874 -3.6312299362534284 -0.5632178205994484 -0.8655247821133153 -0.8228988034768648 -6.278338457859451 0.9954414022448759 3.075692674319788 -2.073635537148085 4.890464009783519 0.38844734343695764 9.442120946759866 -1.1277858425259337 -11.226977956030792 0.9428929084368083 -2.2493780808382406 -0.08865429501199444 -1.9894161732835605 2.366496875389039 -12.401805997954304 0.12865547656487308 0.6663977008008758 3.0009773893795297 -10.286085553337731 -6.528437311806217 -0.25396011804701624 1.1728816455288278 -0.7211233634203059 -2.044748024391635 -6.500149638155929 0.06727194142149548 -1.5428429307431395 0.35230393196913806 -3.1063760349579055 -0.0036321215869084375 4.434139588705371 0.43769835773826254 -4.470149618374153 -1.5494902520503728 3.25426833779729 0.6699808072308449 0.8133195140909942 -3.253581474382284 -0.06621322979611383 -0.6352781024777977 -1.2760905131971199 -3.255054123561981 0.455333479219247 0.08289211247278715 -0.5109746674077709 0.5374975822528791 -1.5539343637064156 -1.2271167608212348 -0.25489727431348136 -0.9444105123253945 -1.267469075969673 0.6974021884788769 -0.45003521051305573 -0.1536598369576808 2.0129344814621026 6.643971293852562 -7.32571449893835 0.14534852827867625 -0.23397441965997656 -1.0972745221568296 -0.5584264330781509 0.9828391634017595 0.14272372678523035 1.4655770846285996 -0.15722085528079444 -2.9828376588274006 -1.2477337963205821 -1.0674917028942317 -0.003952102987964631 -1.126434946749711 -0.8433692852787675 -0.36473619043352223 -0.9070563418995357 0.8983252549984441 0.5909626672475474 0.9600241258628641 -2.8186044443152554 -0.6390990124242225 0.7005705044100284 -0.39503844837767943 0.20107573646122007 -2.5183685650396406 -0.01977895845540912 0.862138496911112 0.22182239872870288 -0.8195637362077833 -0.6233919525812018 0.24093203436307392 -0.3505823175888862 -1.2733075980644228 0.14996116166370793 -0.3467863097437124 -0.28953853932337575 -0.3363210321157745 0.6037175739184019 -0.05815650451511593 -3.918218117052973 -0.2966187171708562 -0.9063971449231312 0.5174809729895988 -0.37304789200278965 0.43246274503738935 0.555548605387787 -0.3019406714287268 -0.5085369956907196 -0.40894599779780627 0.6322985831476277 -0.36615493159500406 -0.5008531621881408 -0.5893865847017246 0.5379214862551271 0.8918437087074458 0.2760907376650798 -0.32612541039368037 -0.11442122439761124 0.19189555017301713 -0.6236663041810947 -0.7791520925230525 0.6717170483928833 0.6211533618451974 -0.5580563649375979 -0.6175942907564496 -0.8879976759679004 -0.33664874616082147 0.9509630574373559 0.47580820198178564 0.219585606642662 -0.374993200188313 0.8405456378011874 -0.8071999574897367 
-4.532372348062228 -3.650231037475085 -6.542156161155143 -0.5528276250224412 -5.303268438713129 -0.10355399415503301 -12.180494143194359 10.915401773686721 5.827491270070962 8.399012943688112 4.649397851879059 -6.239447594493847 -6.384032512023914 -0.7179345131483175 -0.9603578664745748 13.01999634451413 10.612262031527488 -10.704981511476191 -9.39038089640481 -12.220910631574501 1.2697126462498118 10.08528717272956 2.499018702530799 -0.5797501136725238 2.91241062088319 -5.613225143975828 -0.07616071738816658 -3.5066402441773072 -0.9336553282023946 -10.052087845197608 2.1906225855396015 3.1125741806819995 4.593384979322193 9.80338042413324 -4.445296480287782 0.11059022572715128 -1.5852579996126233 -8.452251146781899 -8.367270761866239 5.070011570521649 -5.90082316670952 -6.900162177269902 -6.811134889713 7.430302335638071 2.817606025888948 -0.6254750715045636 9.185411955685266 2.741084447612201 -3.954404521990311 2.2193306829931805 0.11874976427905584 0.818454275481957 -6.2495405514316325 9.588698720760226 3.936844527546658 -7.502752087858388 4.158796516766408 -0.4521304324118428 0.1525099658530665 -4.363394036776255 3.1654921318181186 -2.7881850922692006 -1.5847447443252731 -7.892815303282392 7.580147300630675 -6.83178160622496 3.30386221074273 -1.9651009109729118 -2.135693614257465 -0.45035439022733753 -0.9352091228828617 -5.886836570093911 -3.874887256360473 1.0843716892226838 3.8939033935859415 2.1359658738010867 4.853785986598698 2.259026490039527 1.7468667555135984 -0.9445503174605409 -3.280736614961517 1.2075952599579645 -17.087921696505457 0.6553561397180988 4.209461308121612 7.575024943748943 6.01702051764174 -0.9488865284665142 -2.6397289160991675 -2.178906940125122 -8.03592665910426 -6.151063593811353 2.1113828507960215 -3.7158400459229006 2.4779497584927745 5.851141716192909 1.9732853315091958 -12.570927007845082 7.467774042469416 -1.7751793541651162 9.255591339942336 -0.1625148541454843 -6.329050142586638 1.0289670493695444 -1.632333991742611 2.696522579868122 -2.2880063740939756 1.192312881429282 -10.483293390826628 1.1733900820981116 -7.386631048307309 -7.235961398659125 -5.37320533438726 -0.4388468059398425 -11.573312179120094 -1.7279885145930312 -6.79456163977059 4.635131525350318 4.357304501434894 -3.702696347889473 -0.6577038201947677 9.801683384147893 -7.178149877850217 -2.4004072859717858 -5.567414670696843 9.914701487238426 -1.4395170241980446 -0.20703089639017205 -4.794016634871662 -2.1182365442568774 -11.31485226774688 2.920185372079357 -14.799753393985068 1.2657599287005368 -0.6975207011554656 -10.02520430714204 9.123789895127894 1.7890112919394798 2.031543551287331 -0.3376497143188349 4.083850114650661 -14.075794340520918 -8.285037271430953 -15.13071774313306 3.7941751141497706 -6.968778735214457 1.2828986996224818 3.2144636366694845 6.406150958498013 -14.966920792976826 -5.910153186176378 -5.468022319994996 -16.38143902366374 -1.3382166017559929 -13.320017724578051 -2.922912513514567 3.025907760539572 -8.40928545420673 -10.071446371659263 -12.03095862592831 -1.5614542270696523 0.8144277493895301 0.10913261745884688 4.70311009313078 -19.37371743632201 -1.8214396705355438 -2.7346869042430657 6.163556686048761 -0.9631535949872848 -3.766279030081419 3.2622222330857786 -4.981613690306836 -0.15977188551325108 -4.345996954040058 4.5265386324053685 9.44122322932712 -2.786588705639115 -4.911334980856454 -2.6268199572982827 -0.5626946208634169 -4.180483534763896 -2.5180788775407046 -4.37100506362084 -1.4590899969258697 -2.9578364300771955 -11.101163193491413 7.381789854746348 -2.728767806148364 7.807613306107466 -1.362924345246891 -3.3763421843963424 -0.7562196079625021 5.457919846204056 5.9809092470646545 -3.556312580316667 -8.775323075487243 -1.8340257847951522 -0.6717979331179302 0.6042665229574449 -11.248063157721521 -10.413228265890481 2.3816182974770874 2.618737401753146 -2.5320185912828674 2.0319041711091126 -0.9767642720770002 -7.735481005673039 -3.6041736688585475 -7.206931678822984 4.163012763337249 -2.040334158796199 -3.491001719732715 -15.295620250719935 -0.633473864344944 -8.088842549274021 -4.286178145813881 4.1017396937482635 0.351065742176335 -3.838722490065996 -6.760931577551294 -3.9658469085767654 -3.176738356460112 -3.6676032724606946 0.12492007148051587 -0.12195875907159297 -4.162562914281958 2.402051645899417 -8.795521105084314 2.5270929889122646 5.086002186247469 -1.0561643208826645 0.9171430426088533 4.357175601950553 -0.7199790366778137 -8.25030392101954 1.7891776605064669 -1.571496271231402 -1.4940104272252404 -2.3391802647659685 -0.08839266483461121 2.154227464358974 -1.4129650602141994 1.3995883223646752 -0.8339958945164058 0.1933910038264713 -0.44922396445471785 -0.08839058766859952 3.2988256908890166 1.9840186330816543 -0.6111860715324642 -0.9307040112924289 -4.44288311975668 8.552777185047974 1.2577282964973766 -0.30118163757756555 1.4806097736440613 0.6237532486604653 -0.9766925450915395 0.3750790283496364 0.4293174121641647 -1.5363468667302667 -0.7233711448897958 5.420309826566747 -2.9280885518302107 -3.182407795316231 -0.9822809420410513 2.817759791020652 -1.2445489844495543 -3.116671774013229 0.2903327855746071 -2.413986482873226 -4.426596242493246 -2.397670342776069 -2.122760257743488 -0.8740282357654252 0.8610635941299721 -0.22273297584616775 -2.2856725871138566 -6.520359316594264 -3.4241941035084458 5.301470854740425 0.5372881424519794 -1.4060381996998126 -0.42700925679137 -3.2516360145126844 0.34243503489251303 -0.013228044941132435 0.4524812472625863 -2.5335885798394364 -0.6495508108637591 -1.1244916865855352 -1.0384485958930643 -3.2672500770275037 0.7000779643963873 1.6207092438835626 0.7865569510150868 0.31858251115553704 -0.9202535539351304 -0.751776811106049 -0.6998120022870744 -0.49010289099091653 -1.4422397670844147 0.5149805900355122 -2.803954188797865 -3.0493316583614365 0.7690265205090554 -1.0655353895241506 -1.518489415915277 -0.49876774832452997 -0.03800864443435401 -0.27351409343265703 0.16212682799636044 -0.06855225234428673 0.558826352935513 1.308335958166089 -0.982134281597802 -3.6715301399830143 0.23331602729075251 -0.3349424188758873 -1.0261879280590471 -0.7837899704091389 0.4162257655139176 0.10485365338204601 1.2507902571511087 0.19783880047936978 -0.10447082222780267 -0.01079950513339053 0.29214336384740686 -0.44579466558038483 -3.6380150805273916 -1.2402444889348292 -1.9095180050178469 -0.6859946230813687 -0.7673101594712018 -0.37687845108350104 -0.22415076312851248 -1.735221980635674 0.3775012248192443 0.3276287679160863 0.6821861376040437 -0.5634682952458147 0.3242901601301586 -1.0292978358519145 0.5717044245136976 -1.1223438231767224 -0.06010770189459176 0.7470659057280857 0.7566588059998518 0.6389509199482875 0.11290814319636164 -0.5135724407366509 -1.79060166383476 0.049287246977780454 -0.10225085306168698 -0.24186124730678912 0.02920432815930038 -0.32463401731636576 -1.0120247035311882 0.8417479814968122 0.9041191828344853 0.12934651971080752 -0.3797385309515694 -0.8707597578964552 -0.12288148513131311 -0.2928980458248633 -0.03139332437835362 -0.8949491581995187 0.34467756318241 0.41807936737841495 -0.7552430322394339 0.9069639186705212 -0.11491627671196426 0.35625946032814676 0.439556412398506 0.8331471823286185 0.2819212718264923 0.19403075119577567 0.5420048089559724 -0.5133657903166683 -0.1403204154193377 0.504581921668098 -0.6326090786573603 -0.055404574872181755 0.261281434560878 0.5533754180614074 0.7111413129145088 -0.8170419998638536 -0.06660601545393904 -0.15788124296663728 0.441346442331846 
-7.368978282580199 0.9449711983549831 12.147237475849519 1.6801124790210713 0.5664385089444132 6.54659130850908 5.024807343045063 -4.359412852816957 -4.585518658163769 -1.0369614913677427 1.7387743745386899 13.183682975970804 -6.150872746747491 -2.078048291358069 4.540703250654706 -22.965947467814793 -2.5680151460282246 -5.326596056601429 7.679319880542872 -2.8183209016736774 4.549496805970954 -0.9539558427855364 -8.36378718449287 0.4032436054874633 -3.7783998683178717 8.127011535916242 -0.829517072102948 3.920028786496773 4.466027450134512 4.8380471019695035 -8.331460689973035 -4.213350380942674 0.5604706938948965 6.361402295017604 -9.729723486334406 -0.28431018061530566 -0.3715488644468368 -3.8535977509356223 3.743100836238752 1.0311022451527265 -2.2222496247281107 11.070380214641798 1.3032057058644833 -0.17907841318129492 1.9128145555126637 -1.0090628342700922 -19.602749482498737 -4.116660225065371 4.702531735757807 -0.4783581394956352 -1.7114599294254849 0.48955943963691984 -1.1687905621770949 1.3831085360051885 -2.6020129409130712 -4.12015540332317 -0.03984680391942787 -2.0652096812611984 -12.699551979467788 -2.5653594898867755 -11.233605748703313 -1.9158805211111114 7.190576427160638 -10.543198946333398 -0.10887295187396769 9.038008789956288 5.47967546895769 -18.550066377861803 0.4059600627294575 3.0620300520739923 -3.1324981282411004 2.707047505199413 10.126813271191036 7.131229798959434 10.371458197658123 0.04003838045320551 3.3026403321877167 0.6620281363739614 6.110015496531697 -1.5004962946338474 2.371713837815082 -11.316640007172527 10.374540896654604 -0.02877555254425303 -1.574806691298813 -4.911341357840882 6.480791414447472 -2.155869502571923 1.379016526920076 -4.16357378194107 3.693717809523291 -3.295755905608731 -8.0905983817426 -9.724553336004151 -1.29483127391285 8.243342186446275 4.374017499892195 2.6467565501266836 -12.757164026218568 -10.545471816394977 3.6062924881772616 -1.147800402417996 4.6363542547400645 1.8802859647393064 -5.683669001281229 2.99603811336337 6.079450773348293 6.798042415265832 -4.287727771090867 -9.697496321034608 -0.806493610128764 4.505533412908007 -16.54623662078269 -1.7395353231244588 -6.157600585580834 -1.6065678886573802 0.5004225711332692 -9.497010219180364 -1.7205062727563551 -0.18294303391260347 0.47843840439070606 -8.184202487122581 -2.853865846331718 2.6094400384967904 7.151147252181072 4.38751283537211 -4.984039723512066 -3.643432776269051 3.0611897313307015 -8.554626719489931 -0.20736733600912577 -2.7746779330657745 -9.756935875663707 -10.184470823719737 -1.086153947016333 -5.4273333218307735 -3.673347313425113 -6.479762504997206 -2.4759789279411715 0.5371225086657683 -3.088252731815836 -18.491716158467682 -1.7768939677435087 -10.319994720879768 -8.037507516892722 -0.7409405059965665 -7.216758925801106 -13.884317797268475 0.35688252888566424 -1.3730562707637652 6.453365651482573 -0.6412901377106324 -1.0591731599745415 -1.0660150097624008 -10.89579779861207 -0.22520564606579968 2.1284654959878515 -1.6236715879711745 1.148652538388742 6.670183549212304 -3.9959623436327742 -1.2707819725761613 -5.989225523049822 8.9575256947433 0.5905278122868645 0.19787141643315928 -2.1038923323271574 -0.9144961117550167 -2.333809921375895 3.9768213755832353 0.018483819999611493 0.9732710062673525 0.014864320433711314 -6.1860586131420146 -11.594209720243107 -2.6410312770651525 -2.3260066481321156 -2.485560893908982 2.1332677426714715 4.605313534514868 8.637968924594862 -2.9433570587174267 9.928967938401541 3.4697466997519304 -1.1155631756068025 1.4868400880561667 -3.567364600919789 5.521432606193117 -4.990007944443344 -0.7277196053284679 0.4509041553126019 0.1911811506677336 -3.0853071697779892 13.426590149524353 -6.275092427341632 4.397018645592793 1.61776661093344 -0.8391404550006302 1.5529536766690948 11.702600498168234 -6.862323003838581 18.455120677058666 2.4853821498189186 -2.3623104274821256 -2.332501415661358 -0.3554416995331487 -5.308471232965343 -1.7906587012336719 -2.312830957463837 -0.6377340713851214 0.024812079734011366 3.1564591148796457 5.002042592999077 -1.0451726874451885 -4.221796836161276 -2.2113136329390497 7.09926962476185 -0.31360386956018615 0.9249032016829887 -1.257842769845797 -6.85258004160332 -2.2220524986642527 0.8523440439152199 -2.7981188559941974 -0.9303659946193268 -1.6105157159919494 -3.934520895814879 7.45598072937564 8.168339308453438 -2.521600434673785 -1.5286350519599452 -0.15105016664797263 -3.8575522986491295 0.4201796669530148 -2.13871083635722 -2.022427615963357 4.805817581765806 0.6670318813478552 -5.825834946576881 0.1818058771442204 5.418707838229319 0.8829863997682289 -3.016829839279563 -0.7425912460866383 -1.0564562271950828 6.63754700536108 -0.8123690619373605 -2.51631779827562 -5.317341189613705 -0.36733568308421005 -0.6756656468068173 -6.812825218589649 -3.3871772344384676 -4.9923448499151695 4.398957724091291 5.256200050039215 -2.093907972090529 0.15467061330747567 -2.7357041091117 -0.44512658929558596 -6.744434512197488 1.95067146166849 0.044167760597684 -1.2435964027379733 4.224587649552194 -2.5264072283105214 -1.5261547395220285 -2.7553825392129943 -2.7920740989942487 -0.5218688055709383 -5.388660285561475 -3.413601105195606 -0.2713914048144835 -3.9508910157488626 -7.430350143244051 -1.1465754319771873 0.4431165922433364 -7.572626934838034 -7.696137340638421 2.8234626079041742 1.8924222236869355 0.33530053462194126 -0.7163623539844892 0.525852942418357 -5.764667358920452 -0.492709599679489 -0.7448254473094226 -1.0444166807011348 0.04523051335970217 -3.3017268110196047 -8.07958549940248 -1.7202097386685369 -0.2831834574002848 -0.058182941658850934 -2.309642583915074 -0.5202349990143297 0.3170475648832586 -3.0907046566992977 0.7360862975383916 1.7576616391268556 -0.8541138024140092 -0.20806635890246478 0.5679545605665959 -0.4116413041032898 -6.211880826810785 -1.080482378829157 -2.346008768939889 -1.7920254678684158 -0.23284272034964754 -0.0024842988799075537 -4.524597213489288 -4.112585591890948 -0.1254570972935026 0.7592555717556252 0.4647277940868672 -4.4328918765324135 -3.960197124729974 -0.02451424637442359 3.7238329638676166 -0.953979708859242 -0.31540993236894865 0.26171345627941683 -0.743644151241836 -3.9716611861031987 -0.08868542464962548 -3.2833142625933838 0.5448362088361737 0.4525388421021585 -0.3080890183067497 -1.3412430506204855 -5.670313934703851 -1.6296732591306504 -0.4176714334334298 -0.5936301430950846 -0.03919652335420977 -0.8282868812615308 -4.485310024304386 0.49988057519135687 -1.3812970135429374 0.5708789697419143 0.3353727517119883 -3.066393390116639 -0.40609588830235516 -0.036441975109612355 -0.23074767135895036 0.9300024978251792 -0.17304434860102022 -0.5119594082461858 -0.33452297455321145 0.048391095413246474 -0.8172522697334904 -0.5115039052393476 0.32322739057643973 0.9622490139055773 -0.7523970501506337 -0.22920317139383564 -5.012103618219422 -0.25549282876801 0.1330294456149334 -0.6269895259723489 0.8088197252675535 -0.4856530820519014 -4.758406551731413 0.40335046207961095 0.29416993298260674 -0.18606660909783743 -0.8776496717046612 -0.5666917786615948 -0.41455599352948586 0.25326598342289597 0.07145274433662048 0.7665003097893579 -0.2406860017642665 0.6168607044976069 -0.39476646169263485 0.841315359546933 -0.9763377884815679 0.36675356316846036 0.9145074480550623 0.45031232232952584 -0.6502365695612757 0.8585103741036653 -0.5696006179212468 0.12372375099214261 -0.5828725174069403 -0.9634538028900272 -0.08082929326545173 0.4025414900455415 0.6795206854102015 -0.796318456790886 
-1.1707103949287794 12.232579562617646 -14.769861547560069 -6.218884971374367 -2.6885297662515564 3.644786403665432 5.288541307861608 7.259284611879872 8.193711427473575 2.572908852465858 -4.116605424173736 0.7476170137723509 -1.0936063199694148 1.2191246622478116 3.2737061894493076 6.470890709873784 1.3249819609961322 0.8160573634687694 3.783813953458789 1.2606738708548892 -5.674966126645649 -9.894358176193158 -4.894870005558814 0.15147656581008978 -5.0429806714662755 -4.7882457073885885 1.3997523065028223 -11.073506778953579 -4.6258291288842 5.162510372701995 -7.237251128131019 0.40263084138042876 0.6266883504767917 -3.4584342726107296 -5.129729752615554 -0.40673084883689126 -0.7762472435932197 11.459488358642508 0.9748240593228993 -0.8513306978945357 -2.094980625373077 -12.042805573514075 -0.5662902001380204 -1.2918516301373666 6.00546738282925 6.646812805810801 0.996941932413002 -1.5362011373291877 7.451768289486802 2.577716584333342 -0.8327108226477556 0.22220246224838525 0.47458950931047017 0.6252620927178341 -8.086919967588663 6.1370317448509395 1.6808065241683119 3.7196930990117254 -7.983455181256725 -1.7863082187542823 8.823016048083156 -1.028424578601077 -1.328059061023407 -5.594000754068011 -12.251161006123871 19.763642983738304 0.9358914437466589 0.5703733457095058 -0.7120504996097751 -9.321443191181437 -6.333701475778368 0.46554433929203975 5.766964222879612 -0.17047515584556516 4.204445819032837 -2.780197932486433 -5.806225625513375 -2.4564867916792443 6.053623645685857 -2.284364664566716 -1.9427371234165847 -12.419263614667347 0.1985251500326646 -4.097806914895298 3.729207926030692 -4.616219767862077 13.290076756559067 1.8218757419594611 4.435018009751636 -4.8725101005666485 1.2002977400403334 -3.5458308381192847 4.848565172251051 5.650773588687895 0.36915948860654535 -0.25362403199433403 5.4144887951213265 6.493944203966484 9.384935553976462 4.422687598019306 3.830006384990155 0.43004455414398973 -5.888533412800783 -2.980207395838359 8.849626200885067 10.325179631389453 9.047858582117808 2.396007793300593 13.460745473084469 3.730281909079783 -4.121454295844155 9.687321029118866 7.707497754663587 3.6229944840105763 0.4177940315164939 -4.255688897496357 15.859345341817026 15.333976933233549 14.231854950221292 -3.2411463808516285 0.28875964081414235 4.991215566329801 12.804879992058927 5.944860900626603 5.211580049687595 -6.513388261494733 6.635604898837106 1.8744921034073467 -8.562501513441735 4.291118805179264 12.239350024880876 -0.9535417285129398 12.078000964358063 9.719024411122707 1.6763609534765571 -0.1474646652325398 8.667379028043925 15.457143772054469 23.794592259685643 11.190493127758364 6.4160870902518825 -4.318990286466806 12.232387082429645 3.5033231828215765 7.568478364495876 5.514936441067642 4.452295848478246 6.153611364412312 15.074936054828145 13.250341089910284 5.912857759142102 9.666780585269747 5.281876468517616 -0.4872649081877594 2.819675834236327 5.392484322628687 8.743816546489148 -0.8864697651937792 -1.9871325219725176 -0.5355109980459485 5.189348418192838 2.2269857124684167 0.9938896029932305 8.054383353531387 6.465347182557703 -0.10411640138083154 4.2588068536348045 7.976856369599176 12.940115139385773 4.204995294081335 6.7343308840053995 1.9185585206176075 1.6661126135083963 8.001723106527324 -0.017114128510191215 -3.0448676114337414 -0.6264657531944324 10.475099441367176 -2.291897920899253 8.031191158022073 4.068125353193341 0.06605576855487197 3.1326199292697066 -6.5274060783351855 -1.2704391633173275 6.336446745350878 -3.9130115541908177 1.2001106848962666 14.493383718521082 3.2335857868248645 9.385359699201123 -0.9685440971488357 2.968433201416946 2.0105302086154424 1.5990036493547866 -4.588738704171922 3.004052835878794 2.685942679273219 -0.6631165796090821 9.201315663800523 -1.6335396956406347 1.376917642741142 -1.275318178005719 -1.3343024115267124 0.16180882754279888 6.944967336974726 7.4613854662851296 2.52137077456305 4.979258400896261 -2.7191303724888067 2.1004351402682833 -3.3263569311997236 -4.9248778058183875 0.006255992541698307 -6.945667077374824 5.982340976456393 3.660486668721152 1.2142399507762047 9.784775314124925 1.8124038392186113 5.283733314346519 13.028757423779041 -7.570398621269527 0.7781639780991874 0.3734660236000567 1.5964545864007602 -4.051191466188522 0.8679891563865253 2.74670743716625 -2.2469708646348447 1.2840781920846183 0.888837025585413 -1.0766417289674057 0.6119393213764478 -3.203560557871 -0.9947031008656748 6.537406910493102 4.604317683301325 -5.026562183546074 0.40063320889900145 0.2406854170854465 3.6399551642665724 3.8354685751894952 -0.6328526885991662 -0.16982505190876127 6.72114098112471 2.2612110615059033 -2.883915298411433 -0.6720224375886836 2.500643326384392 -0.1127534296829253 5.042590995444522 7.83437441302386 1.1094342261497006 1.0595828460170933 0.573462327566915 0.6744855085793204 -0.13896997187225454 2.779573299288705 -0.03020404127084543 0.9193230155558595 -4.31407366369567 2.5944610719539356 1.934844768248656 5.633143282907534 1.0230738507187964 4.767019485742399 -0.17382268372551485 2.9576764252398235 -0.8990718000683614 -0.7415542984323084 -0.71952940794703 2.173139708549325 -0.7244954539610883 6.141130746517257 0.2012817488115911 -0.9614265435268885 -0.6893293922454026 6.446235652297539 0.5823093182272605 -4.154083876125188 0.46041652607391864 0.8471345647138382 -0.4659202927409909 1.6629159988522666 2.7794353917104972 0.08606695418791807 -0.6397222390563722 -0.9719343521481809 1.535343433727119 1.1786733947289854 -0.23790680218933657 -2.9354546814830185 0.19186371969795207 0.6684989629840792 -0.14048876560997337 0.28719228033697364 1.3208487145286485 0.8953950914538563 3.065383875694883 0.5192232159519747 0.9967507935357912 0.41241649506530614 2.18694326606901 -0.5013239640741198 1.38773356579918 1.1337692086059665 -0.3586254209574504 0.14997386117467126 -0.023012514911472024 2.9983406334462037 1.520398678363847 -0.46865687547851687 0.08769190407463004 0.31125439315831405 0.21543104946537006 -1.628169498520959 -0.9924785273769302 0.07150250856775407 0.10897448045441481 1.1237060645096324 -0.07292289417819124 0.9305601403958856 0.8901161479709584 0.6526314061531607 0.24116638154740982 -0.028908658303949068 -0.5488341789832089 -0.9648844340331934 0.4553209285639076 4.082880271758512 -0.3753256345722589 -0.6205028263888165 -0.15622428168573893 -0.5585098394660704 -0.098711725350373 0.2263000764743027 -0.5423844205375716 -0.8195627224814405 -0.9761339127926788 0.916423072583633 0.38002881877771905 -0.4685255732901819 -0.15857314275954854 -0.15697031578146295 0.6170823886092989 0.3896596907919658 0.013150659750404237 0.29091753650650964 0.4610991268949581 -0.45022031439743543 -0.41097632015120156 -0.2507162340269386 -0.6401975141274489 0.12539706194668215 1.1660398447372369 0.9074271095003342 0.9135080764543436 0.43094770641686503 -0.9908558869015744 -0.9805279172116308 -0.23015317859890472 0.06798074249559281 0.6868573127004999 0.6576308591257704 0.1641777643817971 -0.19163819670210136 -0.2852225094979876 -0.1342969742836471 -0.46075812354713364 0.7797395845310674 -0.19440625375116177 0.6715321504067121 -0.1091538915061395 -0.22939339555069763 0.3396894537145213 0.4357456598874996 -0.6079317305691644 0.8275938881686561 0.1331290157967747 -0.6862306317750261 -0.2129816855980439 0.6186111534654085 0.6219698072120172 0.45167343279616723 -0.961861580601245 0.8075605716825802 -0.4705400897659041 -0.36263736860585616 -0.8379018890790523 
14.694173456388553 0.7884502597601303 -11.994071059765522 -11.770151619918563 13.69527166124345 -3.0639496375867292 -5.323925036770781 10.30576356784435 -13.952298849095683 6.892510332048432 7.11415715807301 11.992666356786968 -7.244788534934981 -6.855000927050327 8.30840422944375 -12.106295089904785 -1.3816843823124172 4.6996305023659355 -0.3404421828795641 14.350072089996832 -5.732539122496001 -9.882064760235345 -8.909506588694606 0.4106610120622918 0.5019417348770556 -1.2705014494666298 -6.580580666341093 4.342684708058936 5.778463520308135 6.824393055670506 5.603063196017812 -1.5602557991763397 5.4580385493215235 6.24453148586998 0.3866398993160944 -0.9735583830988329 -0.57064333652637 8.240986430544412 11.45194953049856 5.800833403055027 -4.973613226722139 -9.235732119988342 -16.679590012857588 10.88892019634045 0.7263075725295468 -4.040602367550234 -17.026721524130448 -6.286499363359378 -3.7735552353166097 -1.6874110520813863 -7.304052413133731 0.23072345765164526 2.7549091569001036 4.8265768315699376 -0.7375741212375958 -4.904884778721148 0.5702131377731631 0.2646796874854722 3.456817206189919 2.512641930871165 -2.483016001533649 4.624791588530331 -7.296756921061002 9.470184687330196 -2.0410526952381005 -4.523832449179887 -5.276928591927349 10.154336951699042 -12.050549725953365 -5.990714374663245 3.374064220082076 -9.779221135265779 6.3892543874807135 -2.8521193283532877 -3.4189595208866317 2.7739922073360805 0.6159391012538601 -0.8104526710382821 10.87198282145068 -5.58692509577557 -8.388461275623659 1.7290737120095854 -0.06075284927224513 0.996090949740737 1.504657335207267 14.735585039618156 -7.958422477491304 -0.5750710613032434 0.8222895520545882 -6.269944967530757 4.8741217796878615 1.2981072871654988 5.649413706518206 10.775329518044249 0.5945315641113665 -8.508054131889677 -7.57074352900053 -16.091210051822976 6.9142139843996695 -6.19921428313563 -11.490146411794614 -1.2223478694104668 3.6075802262852745 -8.632462390496563 -9.215430821557792 -1.5033357502934805 3.7591875153795904 12.563931275723524 -14.596690454980962 -3.4686935822536356 1.901972810689066 4.517598197434022 -3.4403683779940755 -4.4374456901639165 -7.991605396296244 -10.78158101878271 -1.70497187787755 5.860976178888364 3.03496149572295 -3.562567892892362 -8.342697456422751 -3.199294733087301 3.461650146126828 -12.729252435595031 -5.530872049393873 -8.5283215252508 -3.3067942515804827 -0.9820419420825105 -3.7842017726149435 2.5697976592418588 -3.2623991117348883 -7.977546021651895 -2.2477139152102037 -5.427348306769384 -12.350370528501733 0.5435551284733564 -9.127220913516945 -9.212363324310234 -1.5578236845638882 -0.4032993150935129 -18.453317854854657 -1.8064102890182765 -8.011008896290138 -1.7614523569333338 -17.823495301447547 -1.6907891414424352 -1.0746817365573653 -0.4498821165703622 -8.34673547794364 -12.06534675490455 1.1892998510340906 2.634382652042988 -1.9614887839982393 0.7161803221502249 11.103868565703017 -3.9288565543402294 -3.326221376974387 -9.257137290292649 0.7948150875048386 1.3267939965590294 9.414751503456268 -1.6517141919516154 15.911114457453268 2.7184495207737234 6.663718693697496 0.5049753804674852 -3.313396596269359 -5.110916876555709 1.6803172816898198 1.2288387846359008 -6.332411155900735 -4.047752473974885 -1.5770980512690718 -3.0519627966888394 -6.679667625921902 -3.57241807944183 -5.757975155212629 -8.326356533947084 -5.985471496694924 -0.7653625502040069 2.9679449603244774 -4.982221982634897 3.8841322785429457 13.276906707312728 -0.8991208178761917 -2.9816857438603677 -13.299632914440318 3.8566422260248854 -4.529597753970689 -4.724353768863691 -5.394601165206405 -0.8466089830520154 -1.375745880493487 -13.171564963800561 -10.042761653645107 -0.25740049992052577 -5.571390018578492 -0.22426261703664255 -2.417795846325862 -8.533451253738383 -11.05017557023241 -0.4491997051971124 -2.24650795986781 3.8106775095620087 -4.339594711448113 -1.8357006708115147 3.7195962602849377 -6.249995932483769 6.726671516330381 -2.535551108801247 2.716622268964846 -4.771297553314817 3.7878798932166777 -4.944127320669915 -10.396554711791605 -0.03824691166005133 -2.7181892589905448 -4.318569742911363 -12.055157306205441 1.1514578800674382 -3.633542623219613 1.057636995868114 -1.4907003765657678 -1.1641188682395072 0.3430459759924912 -6.605129465866931 -8.49489740163377 10.784418848701202 7.6474958184403325 -0.6368659032417168 -1.5746241429323 -0.09772309450322515 -3.027266245488204 -0.7285545020962918 0.6418509854831392 2.9140788073970576 -3.5107681299773144 -0.8795909682305105 1.0659377650058819 -0.9635722702030177 -6.657977853274791 -2.587100278431739 -4.718305686840097 -0.6145147774412703 -0.9405524624634627 3.749307595961287 3.4535185877814643 2.3935159627612475 -5.894617116311237 -0.2678026799379381 0.5884691550772025 -6.723258109598041 -8.420937045574213 -9.536769505672014 11.28293554387793 -0.08503194737568667 0.9638314146154592 0.20795937049715185 -8.521670002688058 -0.32255809329882734 -3.6932267425031546 0.037001935496844066 -3.696238218151511 6.8779530713436285 -3.752320675894407 -1.6445328637642476 2.9038233224351595 -2.6352956942060786 0.48865443938089786 0.9185783537110643 -5.730157954247118 -2.212406486142754 -1.084879968247927 4.926845609525237 -1.077015836625233 -0.052053688085932415 -0.6070044171064958 -2.7428249510160683 3.849552148908897 2.973360853674472 -0.588120831650313 -0.20022782686321278 -1.8707262247690368 0.8488635745792777 -6.008889921575921 -0.8578178255571649 -2.6048040979116367 -0.7363584021614521 1.530686519342158 -1.4170786480308588 1.3302786231084962 -1.1675431123940032 0.37159756465147176 0.20433688223087854 -1.5214215728146656 -0.6374110586475622 0.5728174536284011 -1.3408294669780862 -0.40575988919119627 2.0244872739949384 -1.8585015840615584 -0.9020246531479714 -0.8109156465980484 -0.9051924597201902 -6.3301685471370455 -0.4109454048049821 0.13409610086837115 -0.014507455865312352 -0.815419867165966 -1.9943426210963888 -1.062940667335493 -0.6156863858567689 -1.09235853614094 0.6393648688849891 -0.9459849469481769 1.6984146366369461 0.414396245200795 -0.623717752048308 -0.11048396144872948 0.44406005495447215 1.0140895883428422 -0.9498688639249533 -0.09845300509947817 -0.022417321432342725 -0.6703715245651543 -2.4619036839848456 0.4120750704643713 0.4040579705014024 0.32857465339063113 -1.2060002027639058 -4.874753484937824 1.7392207020845842 -0.2964019380835683 1.0324447491281945 -0.5142158804713763 -0.04596450053230998 -2.4535312014488286 -0.9860628326776133 -0.7085288531617541 -0.1326423337449609 -0.49013536223997073 0.5808964566377538 -0.9973627193765064 0.5578655453268457 -0.3153597176915852 0.9043927546583416 0.7072959400247784 0.8533798631490465 -0.5785335876878858 0.5162468086972856 -0.7801290708561247 0.22114271228073873 0.7043863614995013 -0.7172830819079944 0.02907629314546395 -0.285833200569008 -3.5159124803745407 -0.7531451399631536 0.751394413863624 -0.683927520643981 -0.11123441927441961 0.7370716584261935 -0.9512791720490547 0.2303679176811 -0.7838716129885233 0.42628397629558334 -0.7038358780584497 0.1093223365024509 -0.6337123767039928 -0.4910599417729624 0.8229690020115531 0.7667739915676332 -0.22719985444793905 0.5158377785701306 -0.7922293101300343 -0.8113190002616388 0.2198134089092428 0.2064146579206212 -0.6977712051011659 -0.5546957806179235 0.2530081658295977 0.6990376960168998 -0.6483801668349632 -0.7607841368261152 0.0740622101584539 -0.08226719437517065 0.04434073599987859 -0.5819970665033766 -0.6873861657910737 -0.5564045454375447 
14.512886013598578 -12.566352126309813 -8.805758921796965 2.5222255666722373 5.738766778001046 -5.453947338638909 -0.136170113612832 10.965026456499722 -3.4289734182428155 5.191036130788876 -8.79983523884804 -1.6470700792230384 -7.7740375294663995 -8.506378784074899 4.182407488423167 -2.9012276540974833 -0.8168111421518567 0.5272538747454956 -2.2659676691285036 1.8959863635893646 1.6468528060601915 -4.393419635108861 2.9702361918024893 0.7533058766277773 1.1892204137757396 -1.7238222379589476 -7.866072766490378 3.42395109968697 -11.733327443484566 3.9825732710233352 -12.409154107130988 6.606750151625143 -0.6989299660540016 -2.1980029033558224 1.0901065588620733 -0.5784205954377551 0.544897266220535 -13.804450312207475 4.225295624607841 -3.6390931491948892 1.2991273779520427 4.2197921109582115 3.280260643324105 13.583591989974735 -0.981597459387726 -8.017058530970049 1.1064346064902486 2.3613725620763613 -1.74741842238757 0.5297026850357522 -0.3882596531241774 -0.3718004092821832 -2.401399851495365 -0.0327987336299867 5.2752645871553705 -9.997838775690418 -0.3802927140799543 -7.0341215300477735 6.97219320944372 -6.106821828915744 0.07859048539580187 3.6637278766854227 -8.013941484000735 1.8320068215500271 3.355818784103519 -6.999867994005243 -1.937882870096769 -3.473006688627111 1.6197422224913767 0.728277742101322 4.606921068533605 -5.8732030632377645 8.402633071284088 9.277513668782724 -8.977998436591333 -0.7349390602026717 -4.296110559813359 3.0752857698468063 10.53997398953779 -11.660494549551174 -14.749475740586727 -8.388434740241278 -5.086395383627332 -0.36853412361730487 -10.035033293733056 7.99636832664603 7.063863346416391 1.8129468806216094 1.0342727989784817 12.558827494792249 12.766948645202454 4.087643504853548 -8.63800661508671 0.9432209973034396 -0.8631813520607552 4.020225271580112 2.8007079458069133 1.8068548701557448 7.137838765713557 -7.795308863505426 -4.99266067513348 1.7816038509808458 1.275359539558682 8.226471068646473 3.891282217370545 9.580114356481415 1.1865857903809838 13.991406018216995 -0.8031809419550641 3.661488334748717 4.417896091565265 5.551494576285265 -9.277232206070876 1.829908810764853 6.993222559069402 11.066590992718961 -5.811605150201155 3.997495432341745 0.24298323383979747 -0.9846369014878827 2.9969310031242617 5.676983597834369 5.928271894535745 11.372992452549942 -2.187283126451343 -4.480129488418743 4.965707195640107 2.7424115407848966 -2.9860133736639987 0.4765262338084973 12.813185153703863 12.28695633001676 -4.455751730019003 0.5676558280166348 -0.5296734037564118 9.971132516110396 -5.141501069772327 21.980627993544445 5.001369859051747 3.299142031785719 17.27213212897253 20.040164932396564 9.122127201145556 8.486577327852494 13.519507248020258 7.636134476389413 -4.989632621605165 3.3105947696772264 13.325296151698447 -2.995257260096005 10.32568378732137 6.343252570141667 2.807972574809303 0.48140649809881936 0.716120273229951 10.096244039327962 1.4528308127295864 6.249484204299774 15.770242552082408 13.77000091204291 -1.5535256178387036 3.80853306598231 -7.546902614391708 -0.7274015098709856 1.8346981873136412 2.0665885845753573 12.418707711169972 1.2276310645280641 7.765756928286369 6.520297800989078 -2.04638117396986 2.1773150459683213 0.6866887395804506 -7.042145966589426 16.357085413189584 7.6452102335947965 -12.933876808541202 2.736320420124049 7.31600347016485 1.6954555399059743 16.08078594023064 6.7710480134007565 0.16613976714754253 3.469601222037158 4.243559304743232 6.309833392315936 12.089876230249049 -0.7356776781589247 -6.94650443952665 4.48311201513277 -14.71732678708341 0.7715887732521145 2.057640143130398 5.810327584811861 9.182378109109207 9.740356265376342 -2.1241392416431384 0.8114433784197259 -3.272374270213396 -4.29044428933864 -4.366793784497786 14.252147431288279 -3.8308624270265703 -0.6133566386122966 1.1887018290441544 0.7744342910527142 -3.9284699141441157 0.11402172593744339 4.253387997191042 -4.439508780922141 -7.036227500992074 -9.612813302029092 1.2949173764724355 0.39931994454149583 6.8709060243942215 9.358789242049099 11.952696856156026 0.8972365812683488 -1.1427782264107758 11.032106528490408 -1.4029782657382956 -3.7390300033464627 -0.7818029362563405 8.582420827472243 -0.829466530128165 2.8771276801178605 5.852215209420838 13.109596690261606 -17.12756739342914 0.6141803410340632 -0.24066679597130342 -0.20302910682558353 -2.612850396616605 0.9230117559823274 1.4443859072748717 1.310392221592967 -0.07098060328600142 0.8087144159774557 6.726976559466709 1.3543921642912715 -6.412956391319976 2.1631987034006337 0.5573600460026248 1.469204421285034 1.6356999032586743 -8.03118983181513 0.039559060238469265 -5.128022272657763 9.165751509536609 2.1433891678211605 -0.19962386437355756 4.94375441773045 5.1586735632273495 2.722586036843656 1.908511993871218 0.2186574491140288 -0.5082088763939202 0.4299947444764495 0.26191123690739276 0.17575759998150572 7.681118410812643 0.935165739277556 -0.7177966441244252 1.7948558339093879 1.3277655412994689 1.6212738191017149 2.063420586864772 1.4431995689985844 6.071848486285736 -0.8244133512489467 -0.7212208333085482 2.249936439221045 2.5086542762399913 2.3260045715384203 2.6811657120936085 0.8970797071090952 -0.4204051038186526 2.3732806603724423 6.5757070727450975 -4.231403143176519 0.8621428819266703 -2.8128320187173457 -0.7784828268253459 0.6925262431121477 6.7540430705188506 1.1777352869488378 0.9088468801664096 1.5892210558094928 0.7294529716035686 2.6562152971928006 0.24140763530601644 0.36974652670286967 -0.32581539377380137 -0.23017029742108555 5.74433096737156 -0.6120868006255612 -0.6574434808570003 2.56164536826661 -0.11755363623212023 3.200682403303769 0.4143656793700665 3.0771633489638153 -0.9782697176560761 2.6975221294604648 4.6827145778457515 2.5117131558674397 0.42722922181251194 0.47547973389567766 0.6072294523503121 -0.12151663335165132 2.2394382022711463 0.38797267662980583 -0.06443569359352073 0.8852076181093583 1.6360324405008602 -1.2350087160130974 5.680809851007116 0.042405316839806466 2.1447117479414035 0.41105689650695215 0.42617896204442224 -0.7545088718027001 -0.06236291065320019 -0.9281465745776607 1.0772693051880105 1.5704423383160095 0.8390376524419525 0.1781272475796882 0.5334774774923587 3.3826462956962002 3.354609758969285 4.04174151072132 0.3522272358804933 0.7777366227950159 0.6062723393518297 -0.30422789197975236 0.37920046788707423 -0.7256550667328595 1.0330157654835095 0.27110983396401966 0.2144919377759489 0.1824519353455536 0.9740471979492181 0.7380871428174487 -0.15581233135806846 0.5998443668333328 -0.7413535730300604 -0.831987883906123 -0.26104710856663793 1.0743572364354217 0.7798771255382789 -0.24360738514358465 0.6477050072445086 0.35743794145390206 0.5554534995462737 0.9839335294083177 4.106578262728756 1.3090339900025405 -0.3293940396963876 -0.5867268729526307 0.24050745030412962 -0.2437883384545757 2.9377264231031526 0.7437502858083003 0.7399535069735401 -0.36533280077147495 -0.953047652719566 -0.2678678808733896 0.02747464316782958 -0.17145151284081236 0.09784808012474204 -0.33702771339930937 0.2063148734158115 -0.5487191079354936 -0.0539946027565349 0.8404658657315642 -0.6365895902440861 0.08434508898261545 -0.2529805702253078 0.7617466670993058 -0.21976550152297336 0.6941337850876116 0.35219770634238895 -0.7805510605547826 0.9098146204017763 -0.8647588794018849 0.5063657960813481 0.7113078094408982 -0.5389171226453744 -0.5719168359090462 
-7.4158487664538235 -5.651950870548985 -9.189735347764596 8.035378580000529 2.658481255591664 -5.883064937696589 5.2062344341511135 -0.3069092052985127 -6.468444600415218 -2.0666130353425345 -1.2365791621652682 -1.215320097440302 0.30468336580293487 15.001972729700048 3.466839532095627 -0.1629129921372304 2.3976721645087724 -4.945747596793643 -0.17723846926935224 12.4763802783428 19.942848033187346 -3.4165811897655622 -2.498751717286035 -0.4048896853400844 -0.8522526792794562 1.0224763895951479 -8.811281589426631 6.354215252537901 -3.375101192359091 3.1611434039114923 4.18049127515703 3.9838309310878834 -2.478765495012685 4.873412939415263 0.5635015270728867 -0.963673841961368 -0.5902982720878713 0.9484591516357934 -6.682386688706476 -10.0907777294193 -11.454529388683477 -8.705526529774536 4.232514482756486 -5.564581101077365 9.465906674019983 12.510365663466347 20.124809515970476 3.2814172700294333 -0.8656126657488067 2.78667759395932 1.8699844019141894 0.06900787450578533 -2.6331321914842394 2.319855471826421 -1.7035446092936586 3.025307553271539 2.5787931978983876 3.728992017744354 -2.9958929272793524 3.243992729072414 -8.59277019564703 4.360953452489791 -2.208458391421039 9.521278896073563 4.652999829695374 -1.9048848960046587 -8.540299297958512 -0.9243621215006879 0.0651929671608137 0.6259127422155735 5.430439863377306 1.8119378602768033 1.3419361682690807 11.613018654436647 -4.555642829505088 -0.8201715803071356 -1.7098069810408507 1.9602316485272966 2.8726815084000017 -2.5050831453466222 8.102849091611445 -3.2984585683390772 -0.06583824488266159 -2.62713513877271 -12.325459443031399 0.09543738279368051 2.9108395548420813 -0.8228556260366718 -5.338374546029532 -10.2189068237382 4.522994598909821 -4.061054079547017 4.4005067034391665 -7.359900319137238 -1.6799913529395283 -2.9744494714102405 16.963216628023673 -0.716274029883174 17.421816884612973 1.3991063197569003 -7.210484288635116 -0.7640233454506661 4.76576708365463 -1.788449953397441 1.8652365808171416 -0.8434191913338714 -2.4881438995237737 -4.904679329875284 -3.246951667753398 -2.2611339978551346 -5.523700509897787 7.990759242550743 -7.9182225649324565 -2.7035932249497012 1.3621883624081745 1.8070035423688195 0.8354325315311336 -18.094075951421527 8.041128252461046 -4.933468058119704 -0.3504421721531099 1.9657477347438284 4.73218286154024 13.795561325535019 2.1501929691261235 0.6741014877080307 -2.2005539096973887 0.09697042005164593 -2.6819889041324716 -6.671854148819011 -7.864073876562796 0.6162561033826034 -5.46091444905018 -6.1508522387471345 -3.657500182880567 1.0921392072306682 -9.50370201346538 -5.568967689734629 -3.4998467563649958 0.06741930561099428 -4.1057477988283555 -0.046577265148536745 -1.0582343999522494 0.913773116148519 0.5406626014306726 -1.1745309927942884 -3.8917950682106217 6.926614389726471 0.5989515160354818 0.9414342010301945 -6.472855523746752 -1.6931006230996535 2.044649769611809 -0.29445458593111473 -7.8699043453372255 -0.2147093319387827 7.565747791797916 0.1269188824005931 1.577900501679254 -3.73850445935573 -10.97786313967226 -9.623003739673102 -5.717642050571642 7.715830411732502 -14.754310260278865 -0.8824809165819071 -2.8552767417902563 -1.5645807562271492 -5.937245114013664 -7.4530643925959 1.4589399037510575 -5.19942050072505 -3.9558565747103 1.884821133908487 -4.279456878733968 2.09020537782481 5.228701654669165 -3.8604277988933324 -4.3184294523492746 -0.8705243267889028 3.8412402608630853 -6.41493116427867 1.8140588113160023 -4.201171384362293 0.0440568398572599 -1.5001388162952043 3.7638768490558765 -5.358072324615428 -2.77085415394898 -3.684394531196578 0.27749288890293444 0.48432363181238103 -4.711749482520301 -1.2707925844064598 -4.784429104267177 3.0217224836094463 0.30044003357910537 -2.2313345548009664 0.13609435353843902 5.363177489790955 -8.24705163651977 -1.5821112476503838 2.1414974673724068 5.8905737267875065 -1.8175031006660016 -0.8352203091820699 -4.458534397738532 -8.103704886254723 -3.667570558313684 1.1847106180783482 0.7912982692880585 0.11995863880907907 -4.8823427338569845 -1.090346881492026 -4.404101170130884 0.9767309145450787 -0.808106505758827 -2.414500574593667 -0.4362473867771908 0.7285482773737213 4.205084203895373 1.7194107071350588 2.675612965961145 -0.07600700512109596 0.39989669375643117 -0.36400031250291237 -6.7520743824473515 -2.244450153453398 7.214910481159204 -2.131962342499182 -1.8630465041371143 0.8675797308266305 -5.189010790763011 -0.6033253327085438 -1.8280008927989544 -0.33131264981141495 -1.7966256506724863 -5.028283707049649 7.67204703955756 0.016378845894096303 1.9438885621487398 6.62334047917072 -1.6487956270083177 -0.04468942245902886 -0.758916706550345 -7.378577743307709 0.06439117670970819 -3.3382057908794716 -4.212110802711612 5.943265008736874 0.3432075680461655 -5.653996797790529 4.0549469337746205 -3.8960535830364584 0.6724330515461657 0.7646057280072511 -0.7759493750060668 -0.6686957061265512 -4.6944093449791815 -1.8011147518061967 -3.9786375622201358 0.29620560381285554 1.265746164811966 -3.5530507049094107 -5.542702770967745 0.3408446688186964 -3.9947468718207313 -0.534771200462633 -3.542777855441352 -0.22028374136672052 -0.3382146820712446 1.6103572436328861 -1.1224611699722031 0.9433314647929971 -1.5227424722261924 0.23041040195537776 -0.9249442651030166 -2.539359824828763 -7.1116301050959 -1.9984646667554664 -5.008460954446332 -1.4482645191493513 -0.21529979546842423 -0.5703239065371196 -5.376130103838659 -2.6767316807613275 -0.70235383557088 -0.6574726186410536 -1.9327653784019703 -3.294794024943021 -4.664952641644424 -0.4537266285351211 -0.1303799892669057 0.5598136922078643 0.5233812052964701 -0.8079074849265008 -0.42687847260028283 -1.4411500302184628 0.10491382604364269 0.4066738022759747 -1.8673652983690385 -0.9998403782773382 0.9306644070893554 -1.313281577409359 -8.50853571646338 -2.5011713009757957 -1.078846309437372 -0.8572712579556884 0.07116036349745958 -0.2655860596881869 -2.4844067069553764 -0.6679697118779829 0.4786313385796314 0.2738739590859114 2.089718055562701 -0.33095733544549144 -6.949259245465229 -0.29801618285364884 -0.31970150466487296 0.7955327911194665 -0.6310896498096983 -0.20608621423962165 0.026267748688373463 -0.6059700276938763 -0.0596904074164278 -1.3897009529557456 0.13360702894567306 0.1112963696023134 0.6718184847880923 -4.709916387130829 -3.226409414143408 -2.8854445995736535 -0.8833803076654161 0.13845274843709335 0.16381163545889085 0.503063044257322 -1.2850897731101447 -0.3583964171208601 0.7086749332985928 -0.9747306159692123 0.3314758474047531 -0.8116761586169825 0.29793298750799263 -0.5680661598020617 0.014106077402550977 0.3808845843909851 0.891355565293237 0.5727004483913105 0.32186445138977576 -0.032256610699413595 0.20119464654561098 -1.0480971835788482 -0.8658524988150116 -0.10277343619050398 -0.5279560302654919 -0.7275574233183136 -4.881293045463476 -1.4775402004551532 -0.8028706217282656 -0.6461433775257195 0.8438901194366729 -0.9018436519722048 0.07990799329583036 0.6686628165187257 -0.5076994081027965 -0.40439916984725427 -0.725155707403619 -0.5534433089787628 0.5660715429149167 0.6647789087144591 -0.16779354755999523 0.9838704098952643 0.17209287168224982 0.4956623613009749 0.9134494038305747 -0.3631176383928596 0.15609789064785182 0.39831089052903507 0.6361733402422513 -0.36304905790186964 -0.2572990821551345 0.8602337888441979 0.23477044298474917 -0.5246342651082813 0.2081363822768007 0.09111339496855313 0.07932853526803872 0.9383467235513617 0.653871854550833 -0.40568777908573644 
0.7952306247339896 2.2706938586488667 0.22733374208083695 -2.5301433585136612 -1.6820576301464223 -7.2018285054981925 -2.683103914279158 -1.7880519570623032 4.51805499016798 -3.2903932153547744 2.621865304044721 -0.4260210771876278 8.860622003005892 -4.917110975099357 6.230154238382196 4.446624827676218 -4.08571564938692 9.627973790686514 9.211177562538968 -1.9657735201582915 -2.7584750766892405 7.859899208674114 10.501169757545778 -0.6979123484225557 -4.731048012187763 -4.702789861765027 -0.009888796965904965 0.9507456105028119 -2.300863743515783 -3.294762206300634 1.625193019366717 2.59969906682741 -2.510856747885079 -10.390033438331088 0.25173436174519315 -0.06197009582794406 -1.878004966648519 -6.0297079611819795 -2.753127750038927 3.0473429818343316 -2.928324113484772 0.47821208013648864 9.882416619594695 9.071977619751475 6.700815787486962 10.039259503326297 0.68195559329356 2.26366591283041 2.4199778107673557 -8.036468255542783 9.411490741570713 0.6549879945107405 1.0446489664046374 -9.747122957952602 0.7399517844641235 2.266437655564604 -4.220635187880142 7.389345371937216 0.07439755892895017 -4.01595554534437 4.466524178287814 5.801950265617214 -3.321967944583539 9.763550979685117 10.400590524627994 1.0267028809216692 -2.6614803232004913 -0.21772937600062836 3.6745859472127007 -2.20422957494756 2.991052565754685 8.17688418505052 -14.210046532635978 1.3833820537774444 -3.8986980835028624 -0.9295760200972867 0.7707242675686187 0.44445086588060057 -0.9058540382413258 -3.4167951399723853 -7.611483439088671 1.4740906200831216 -3.0720860005503594 -5.544313664530058 -3.892240096027629 -6.333385167129244 3.09905916077446 -0.800742161790777 -5.262230049480049 4.641417559883781 -1.7835827885505686 -0.3011609304453549 4.257049978587418 8.993675850242004 -0.6443476430374182 3.3428957783740905 5.33753730996851 4.262984576287917 2.062654042926641 -4.529667749924101 -2.946714557283712 -0.38780342423679515 3.199486496264888 -5.242178827106323 -18.746415343988595 4.522079904315949 -5.393386043884732 -9.852683844470574 7.862370433531421 -1.1010387101957235 3.1338141810413522 -11.420075950151737 -13.325239977279082 -4.152720484288942 9.569052959075266 -5.666521555337454 1.690626347175054 -5.193235368151305 -16.838668282532424 -10.57011744226178 1.837343354562176 -2.642470910408752 -3.348982497884834 6.943535468236803 -0.6309025285863739 2.409168583652034 -2.249444149592356 -1.8553428856292 -4.523269724720772 -5.777623963433448 1.4439806908982549 5.660095919625367 -1.168081583285689 -21.438132287048635 -17.248910294171452 -0.3352512471487676 -13.591292046045902 -7.2578575376663546 -6.402559653647949 -4.255411561310135 -5.151244598776129 -5.088911235107644 -8.23705510857751 -9.736908527673112 2.6716900243976847 -10.05543452486535 -3.552488926758671 -9.685263139005313 -26.844530406475577 -12.043918301595896 -8.78669985781488 -12.540940428655041 -2.155610795074266 -3.198580876580827 -17.290133255881894 0.8082865104930261 -12.406714577837127 0.8900129063208027 1.3480869331478276 -15.194563873273 -5.598558672229686 -1.8464913183213119 -5.79364375835655 -6.003458092919036 1.4556008143833457 -0.43812248317177566 -1.5518657003278262 -4.439063341267519 -0.9488326224457374 -10.853706293376336 -7.985204902998204 -6.0554042334702 -1.0486996790988727 -5.182088008820402 -9.742396732998087 4.081142752914459 -11.880334659252465 5.662776001107019 2.5838073232294394 -1.8894326881556898 -1.148286979793912 -7.4853611154494955 -8.751204862637254 5.689091656854436 4.466847667749838 0.7470445916557339 5.910371040302133 3.5270738241373176 -0.7743848170931978 1.8885499049313785 -3.2297918539932535 0.4589854925157801 2.2875335961803938 1.8875143931702625 -4.58769162081711 -6.020951699109142 -8.132734737776302 -1.7320070018613625 0.9045171417295683 -10.857005639641818 -2.293145476751431 -0.9058709945169462 1.2686524206338983 -3.5450109182884164 -1.2358887265580667 -2.30141134214815 -6.847858670797965 -8.206202010890834 -8.25600817428219 -5.48362104103174 -7.221449291362086 -9.564973183486899 1.7211879465664082 -0.9474377491189453 -1.6684205041862372 -0.29938436041864713 -3.50580286910977 -0.6777253744414404 -0.20727856073232057 -3.3844376585343108 -1.0822731682575173 -9.880967950062306 -1.7692617786550975 -3.149413670007256 0.8855273167501869 -6.786777938014197 5.0368639314051675 -9.250801171523932 -6.195526464830317 6.869432873260167 -1.012957558765802 -0.9105035604970212 -9.118472373965902 -0.3512333914434263 2.9978037804122755 -0.6051672143941944 1.5179458609041525 -6.5731191822401716 -4.766723527670655 0.9085574554948025 0.2978659116653817 -3.2774432146216057 -1.7589375087288674 -2.919630443133035 -0.15120438314357418 -5.7230577687308255 -1.1119805216756884 1.8185225823183933 -8.594262829452893 0.572442005960991 0.47739916908741387 -7.604852565250739 -11.694535464867498 -1.5374869959036044 7.474407772170601 -0.6067262133366692 -2.332973632615347 -0.06373305663236005 -0.19268748831544363 0.4587498334026449 -2.746715090523374 0.982787058065752 -2.494748602376051 -5.3958661607232905 -2.4356539576303207 -0.3430110962210912 -3.1510981433574514 0.36978526789062954 0.5053703586153865 0.7894707191734999 0.6562778608662417 -0.5870364457177423 -0.06805392100927739 -10.754133139014158 -2.9610045810462533 -0.8217875357826142 0.7641482851352174 -0.23315015878559672 -4.940333606969699 0.3979938190327518 -2.3850640207523073 3.0583845537271173 0.28552495289299556 0.7031445372773325 -3.268575250102472 0.6013176322601601 0.2442580135911374 0.36627470729447376 0.6337337537175003 1.274977414731278 -3.871723613945141 -0.22092792588454327 -0.37671866611371135 -1.192898538378808 0.47392630298130944 0.8511961001678867 0.5710652912941323 -3.9083384127960272 0.023489780976889862 0.2654049574653616 -1.366119271186588 -0.9671043537832325 -0.9680749277100695 -1.356823880229365 -2.5016480406630692 -2.9991590478429146 -3.3406956617349506 -0.6166343896662633 0.5194365116976793 -0.5222891288957588 -5.958736043557715 -0.7441303310771539 -0.22641862746499575 0.3464452359130979 3.069820914555031 -1.624345414844101 -6.070446267172488 -0.46038389269653207 4.3393320035784555 -0.31804760803752347 0.7063887558950059 0.46736320147300603 -0.5155355418745146 -2.1030467301710556 -0.8622298510869717 -1.1509366685522668 -0.8051809383829173 -2.747695065775092 -0.20115487575805363 -2.0934338239847654 -0.3776316741518041 -1.5116123295319739 0.1430518409861231 0.5823926142630006 -0.5240692415482284 0.49579290984582447 -3.2016788813117585 0.1487142810919216 -0.9959726686095465 -0.032209106109538935 0.6428081451457227 -1.0090311050107197 0.4438828514451566 -0.17897379869453267 0.6510138758030305 -0.4676842001789843 -0.25880189950325083 -0.3586544300210952 -0.10801341755136673 -1.4077794770961543 -0.2069307435822523 0.5392443111812516 -0.41658920640907243 -0.8409247406010951 -0.06095476498867793 -0.35907264274443873 -1.2329985053354926 -0.17066962960349302 -0.16471252188784904 0.7312776604669053 0.16824877116291093 0.9760757968319697 -1.5480364252896845 -0.986796309562765 -0.19372118106025457 0.07280124110566781 -0.5392386363165469 0.027020067863838693 0.8912669490098766 -0.9141363215975209 -0.21076678282635086 0.06187672119431105 -0.8367280424468247 -0.8942990056239067 0.9940085858022688 0.9791738989955938 0.5148176117797492 0.564455281939387 -0.9264931445947194 -0.2207571939404544 0.8197922464453481 0.5026805384550072 0.538628450766652 0.41154544321670455 -0.2664911502525855 -0.2744069469628158 -0.6755721082475633 0.6320745035134915 -0.9151696937083954 -0.12188888393461914 
